#Parameter# /vanilla-lstm-builder/_0 {256,39} 319490 FULL_GRAD
+5.86292818e-02 +6.41153082e-02 -1.62584763e-02 -9.02880821e-03 -7.36052692e-02 +1.44035414e-01 -4.28996682e-02 -7.55594522e-02 +2.22353786e-02 +1.52188782e-02 +1.23945057e-01 -1.36698484e-01 +1.41414711e-02 -9.58811790e-02 -2.29668003e-02 +8.64700228e-02 +9.16506052e-02 +1.06920846e-01 +6.89736605e-02 -5.40906638e-02 -3.81800383e-02 +1.06564589e-01 +3.09086982e-02 +1.22485943e-01 -5.27455620e-02 +4.28256840e-02 +3.33018675e-02 -1.04483888e-01 +7.27862269e-02 -6.58838218e-03 +1.02906458e-01 -9.52133536e-03 +1.08236939e-01 -7.25796744e-02 -4.60503139e-02 -7.43761137e-02 -1.46165833e-01 -9.67725441e-02 -6.35615513e-02 -8.50972384e-02 -3.94983590e-03 +1.52485162e-01 -1.27561122e-01 +6.80340976e-02 +6.89704865e-02 +1.16547748e-01 -2.70439684e-02 +2.75010280e-02 +1.08729355e-01 -8.94425958e-02 -9.41619128e-02 +4.94522564e-02 +9.63288844e-02 +1.50630847e-01 +2.62601003e-02 +1.02650635e-01 +2.27404684e-02 +1.51072711e-01 +4.54631895e-02 +7.69541264e-02 +1.30301537e-02 -4.34463695e-02 -7.76505545e-02 +2.89089438e-02 +5.21222763e-02 -6.37148544e-02 +3.43154296e-02 +4.17807400e-02 +4.16109860e-02 -1.90233206e-03 +6.46054372e-02 +8.44016969e-02 -1.01141848e-01 -6.01947904e-02 -6.67321756e-02 +9.13301185e-02 +1.31193623e-01 -6.05861582e-02 -1.15816064e-01 -1.35723695e-01 +1.20627649e-01 -5.10841748e-03 -4.07495573e-02 +4.10637185e-02 -8.71644821e-03 +4.68599945e-02 -2.26888563e-02 -5.83366752e-02 +4.52745445e-02 +3.37883197e-02 +1.33558199e-01 +5.81899025e-02 -1.89914219e-02 +5.15457429e-02 +4.15536165e-02 +1.17235675e-01 -1.01129696e-01 +1.17561810e-01 +4.62999083e-02 -4.65955436e-02 -1.91141805e-03 +1.26798168e-01 +1.47185335e-02 -3.75184027e-05 +6.74769375e-03 +5.64227737e-02 +1.25199616e-01 -5.98772131e-02 -1.36101842e-01 +3.98629755e-02 -2.34301426e-02 -4.97454256e-02 -4.02432829e-02 +2.45104041e-02 +1.49882436e-01 +1.34570926e-01 +1.31666243e-01 -6.25495091e-02 +9.84872133e-02 +1.35884032e-01 +1.06452502e-01 +3.29161882e-02 -1.02851272e-01 +7.85280392e-03 -3.19333933e-02 +7.38916546e-02 +3.01481970e-02 +5.25580719e-02 -1.30551653e-02 +6.67844638e-02 +2.56035309e-02 +8.46380517e-02 +2.70244945e-02 +2.79055219e-02 +1.28480062e-01 +1.34450182e-01 -2.57877838e-02 -5.13386400e-03 -1.21558182e-01 -1.59770846e-01 -5.38495071e-02 -1.22558683e-01 +1.17675036e-01 +5.09501472e-02 -4.49814834e-02 +1.18530192e-03 +7.04046562e-02 +5.17793447e-02 +1.93026233e-02 +1.39901489e-01 -3.71977985e-02 +5.46357483e-02 +4.40380052e-02 -7.53136501e-02 +1.10161260e-01 +2.36359308e-03 -4.09210958e-02 -8.91981088e-03 +1.49760554e-02 -5.25011458e-02 +1.02526106e-01 +3.49303447e-02 +1.39626846e-01 +1.49085656e-01 -5.88664226e-03 +7.86985829e-02 +1.20622046e-01 +8.87290463e-02 -8.57185349e-02 +6.93119019e-02 +3.29238810e-02 +1.49202839e-01 -2.26207115e-02 +5.84301539e-03 +7.67066479e-02 -5.08484170e-02 +9.47360620e-02 -4.27016616e-02 +5.35819829e-02 -4.12068851e-02 -1.35935068e-01 -3.87508678e-03 +1.01128547e-02 -1.20406799e-01 +1.09142140e-01 -1.01106040e-01 -5.09661995e-02 -7.21275732e-02 -2.60618683e-02 -2.66354121e-02 +2.67223381e-02 -7.52378115e-03 +1.41279697e-01 -1.29602298e-01 +1.30073339e-01 -2.54491940e-02 +3.21714655e-02 +9.59243625e-02 -1.46609500e-01 +4.68615536e-03 +5.40006757e-02 +1.80155076e-02 +9.15364847e-02 -3.08540054e-02 -1.53850511e-01 +5.50793596e-02 +5.91186583e-02 +4.51941490e-02 -1.50114059e-01 +5.71165681e-02 -7.22225904e-02 -8.22805762e-02 -1.16958782e-01 -1.87324604e-03 -1.42498031e-01 -1.38543427e-01 -4.68502529e-02 -4.22570743e-02 +1.49884120e-01 -3.37425508e-02 +8.41493458e-02 +1.05675071e-01 -6.50187507e-02 +9.98686031e-02 -9.08749104e-02 +7.34315813e-02 +6.31137285e-03 -6.26878217e-02 -1.22689076e-01 -1.08661547e-01 +5.71365394e-02 +3.00642718e-02 -1.24820918e-01 -2.94738710e-02 -1.24871686e-01 -1.06463864e-01 +9.41815507e-03 -1.23071127e-01 -4.38766256e-02 +3.53750288e-02 +6.06582202e-02 -1.32613420e-01 -4.74691093e-02 -4.95948829e-02 -1.92205291e-02 +1.60535220e-02 -9.29864421e-02 +1.14389271e-01 -6.13080198e-03 -2.89309993e-02 +6.71100616e-02 -1.49657294e-01 -5.36187403e-02 -1.34629905e-01 -1.49708539e-01 +9.82933566e-02 -6.05928488e-02 +1.10986799e-01 -6.35657981e-02 -5.32766581e-02 -8.34646821e-02 -3.29880267e-02 -7.69304857e-02 -2.32312512e-02 -5.71225304e-03 -1.39437065e-01 -4.70064282e-02 -4.48405035e-02 -7.89702125e-03 -6.56017140e-02 -5.04526589e-03 +1.04232669e-01 -9.29311886e-02 +7.16341883e-02 -1.27408132e-01 +1.69063471e-02 +1.09783687e-01 +2.58963946e-02 -1.44605547e-01 +3.09847295e-02 +1.23292670e-01 -6.81470409e-02 +9.17367786e-02 -9.44587290e-02 +9.89067927e-02 -2.46353950e-02 -7.09116235e-02 -9.66859683e-02 -1.54052032e-02 +2.25999564e-01 -1.00332588e-01 +1.18723409e-02 -7.19953254e-02 -1.68201938e-01 -1.33054584e-01 +3.78011167e-02 +1.78078152e-02 +1.01033568e-01 -7.56589770e-02 -1.32089153e-01 +2.05555372e-02 -3.32616791e-02 -8.38088915e-02 +1.13500170e-01 -2.79910676e-02 +3.44078727e-02 -1.63038507e-01 +5.14887720e-02 -1.28485247e-01 -3.93278245e-03 -7.47857615e-02 -1.12429306e-01 -1.34245530e-01 -5.86250573e-02 +1.12732530e-01 -2.02355355e-01 +1.23516880e-01 -1.39486209e-01 +2.84155123e-02 +9.10563916e-02 +1.22251190e-01 -7.81667158e-02 +1.79678470e-01 -1.19050086e-01 -6.30433410e-02 +1.12893693e-01 +3.24272364e-02 +1.00442894e-01 +4.76373965e-03 +2.87501179e-02 +1.39932511e-02 -1.46084223e-02 +9.13369656e-02 +1.35845974e-01 +1.01285085e-01 +1.17265433e-02 -2.76223738e-02 -2.39666253e-02 +8.14656764e-02 -7.98533931e-02 -1.29986465e-01 +2.67705936e-02 +1.17210351e-01 +2.10074056e-02 -2.19815671e-02 +8.36014524e-02 -2.59969719e-02 +3.19313146e-02 +1.08231232e-02 +2.57755630e-02 +1.91856157e-02 +1.28625669e-02 -1.12245716e-01 -1.30150653e-02 +8.92510563e-02 -1.28551111e-01 -6.12909794e-02 -5.52224778e-02 +7.37332925e-02 -1.31360382e-01 +7.89631829e-02 -4.29659411e-02 -2.38146018e-02 -3.29918899e-02 -1.34083182e-01 +1.57343096e-03 -1.91240013e-02 +1.42526897e-02 +1.10123113e-01 -8.29472542e-02 +7.03863874e-02 -4.11890857e-02 -6.16321713e-02 -7.02547878e-02 +9.71240848e-02 +9.09793451e-02 -1.22192472e-01 -1.33321777e-01 -2.90987696e-02 -1.36003360e-01 -1.63654998e-01 -8.33999515e-02 +3.94795053e-02 -1.49045914e-01 +1.16425484e-01 -1.67489573e-02 -3.71157341e-02 +3.95656750e-02 -1.44955039e-01 +1.24123789e-01 -6.00321479e-02 +8.95044878e-02 +4.95850034e-02 +3.66111733e-02 -1.07786365e-01 -1.16834082e-02 +2.14473251e-02 +1.78541662e-03 -6.18787557e-02 +2.94767916e-02 +1.51784057e-02 +6.29539322e-03 +1.06292054e-01 +1.95534434e-02 -6.21705577e-02 -5.50603606e-02 -4.08672839e-02 +3.61227579e-02 -1.51275862e-02 -1.47128507e-01 +7.63094751e-04 -2.19561666e-01 -1.48891598e-01 -1.00397669e-01 -3.84538099e-02 -1.84709087e-01 -8.79541710e-02 +8.36040676e-02 -9.61583555e-02 -5.49527593e-02 -1.21733053e-02 +1.02942707e-02 -2.88773682e-02 +3.94997466e-03 -1.48162857e-01 +1.87594220e-02 -1.96873367e-01 +9.67327580e-02 +1.99850313e-02 +8.89153555e-02 -7.56901726e-02 -1.47439152e-01 +1.18387260e-01 -1.55595494e-02 -1.54046029e-01 +5.36699072e-02 -1.18828855e-01 -7.44944438e-02 -9.51424837e-02 +1.19481213e-01 -1.09174095e-01 -9.36142076e-03 +5.72401099e-02 +9.73618478e-02 -7.52771348e-02 +1.14663579e-01 +1.21021092e-01 -2.95060361e-03 +6.18186407e-02 +3.32588032e-02 +3.99846844e-02 +6.10039532e-02 -1.64864078e-01 -8.17749351e-02 +1.90502033e-02 +6.48671165e-02 +2.98297666e-02 +1.30059928e-01 +7.84553960e-03 -8.26819837e-02 +6.44918382e-02 -1.22453995e-01 -8.58366210e-03 -6.76548630e-02 -2.81080287e-02 -8.45488608e-02 -9.10633802e-02 +4.52343822e-02 -7.40793627e-03 -1.47089034e-01 -2.30486199e-04 +1.00803323e-01 +1.77254602e-02 -8.92287493e-02 +6.39637187e-02 +6.80723088e-03 -1.53965398e-03 +1.13039605e-01 -7.02723637e-02 -7.23217207e-04 -1.47998229e-01 -8.52533523e-03 -1.14482000e-01 +3.06502078e-03 -9.30374414e-02 +4.85919490e-02 -6.43970147e-02 +8.62824358e-03 -3.42145674e-02 -8.43950436e-02 -7.91397765e-02 -1.05479620e-02 +8.87732133e-02 +1.19506001e-01 -9.36863795e-02 +6.55412674e-02 -4.48537730e-02 -9.23853740e-02 -1.59662589e-01 -1.45422220e-01 -1.29223004e-01 -1.04987405e-01 -1.11637148e-03 -3.91081460e-02 -8.29507187e-02 +6.71607554e-02 -4.69085909e-02 +6.11415617e-02 -1.04767047e-01 +1.52644128e-01 +6.15980923e-02 -1.04327060e-01 -6.11521341e-02 -1.89890891e-01 +1.15039788e-01 +1.10397391e-01 -1.48188040e-01 +4.90719005e-02 -3.93391587e-02 +4.92913881e-03 +2.33938452e-02 +1.94875106e-01 -1.81425009e-02 +1.53093440e-02 -2.15749621e-01 +1.26324221e-01 -7.51358643e-02 -7.30782896e-02 -9.64109972e-02 -4.28765938e-02 -8.83859769e-03 +7.48403464e-03 +1.02541089e-01 +1.48817450e-01 +8.04493129e-02 +8.69468227e-02 -1.37413889e-01 -3.84681448e-02 -8.11301917e-02 +3.68008241e-02 +9.88324657e-02 -1.08755656e-01 +1.31541014e-01 -1.77323818e-02 +6.03351854e-02 -1.36532620e-01 -1.80472821e-01 -3.73870730e-02 +9.04891044e-02 -2.08613761e-02 +1.82132125e-01 +7.42952600e-02 +7.41048483e-03 +1.00157045e-01 -6.26252294e-02 +2.75259535e-03 -3.68485115e-02 -2.98424549e-02 -1.02317028e-01 -2.59581506e-02 +2.45739277e-02 +3.71483937e-02 +6.50473833e-02 +2.97381599e-02 -1.26650780e-01 -1.37265757e-01 -6.28123432e-02 -6.94748908e-02 -7.89128169e-02 -6.70118034e-02 +1.46047454e-02 -3.24285515e-02 +1.22994661e-01 +4.07881066e-02 -3.09410896e-02 -6.58425912e-02 -3.90734710e-02 +7.09411427e-02 -1.88783053e-02 -1.60205126e-01 -1.72864914e-01 -1.36178702e-01 -6.89399913e-02 -7.28401914e-02 +3.10156196e-02 -1.48315951e-01 +3.61780748e-02 +1.35974467e-01 +3.67849879e-02 +1.52307943e-01 +6.83714673e-02 +8.06753188e-02 +5.89211546e-02 -3.45828198e-02 -9.16712582e-02 -1.13301702e-01 -1.36450725e-02 -1.10954478e-01 -4.91556413e-02 -1.71841636e-01 +7.13868812e-02 +1.28650457e-01 +5.18572703e-02 +5.77304177e-02 +2.99182702e-02 +3.61297503e-02 +1.03890374e-01 -1.17434256e-01 +1.45975888e-01 +8.74372572e-02 +1.88330021e-02 +1.56886593e-01 -6.47608563e-03 +6.50458336e-02 -7.28666335e-02 -5.31936474e-02 +1.50320932e-01 -4.20316532e-02 +6.22189343e-02 -3.67552601e-02 +6.34936318e-02 +2.98582832e-03 +1.50637090e-01 -1.60172895e-01 -1.27503529e-01 -1.83282986e-01 +5.43775149e-02 +9.39005837e-02 +1.25762179e-01 +2.84983357e-03 -2.51615420e-02 +5.09647690e-02 +7.88686499e-02 -8.55878666e-02 +2.05838040e-01 +1.93694141e-02 +2.93828044e-02 -7.34229479e-03 -3.06894779e-02 +6.97860029e-03 -1.22987285e-01 +4.79650311e-02 -7.41190687e-02 -2.64686369e-03 +5.15364073e-02 +2.94436924e-02 +6.87256381e-02 +5.11559136e-02 -4.94034439e-02 +9.10691768e-02 +3.77438366e-02 +4.48854268e-02 +1.39791965e-01 -6.66831210e-02 -3.93593404e-03 -1.12100288e-01 -1.01886071e-01 +6.23795530e-03 -8.19551498e-02 -7.29200169e-02 +1.16972834e-01 +3.36305983e-03 +7.60936141e-02 -1.40479967e-01 +9.13486332e-02 +2.90928725e-02 +7.56716356e-02 -8.81237909e-02 -2.04762399e-01 +5.34665994e-02 -5.37880808e-02 +3.20313824e-03 +2.88789757e-02 -7.55473971e-02 +2.46845353e-02 +7.84741417e-02 +2.64112535e-03 -2.22453419e-02 -2.95415856e-02 -1.62315127e-02 -7.70269111e-02 +9.32236686e-02 +1.28036495e-02 +3.92730869e-02 -3.04879323e-02 +1.10071264e-01 -2.40112189e-02 -1.45430744e-01 +9.15798098e-02 +5.84534220e-02 +3.43180000e-04 -1.58322319e-01 +2.16024127e-02 +6.36877343e-02 +4.10714187e-02 -2.57317685e-02 -8.25818032e-02 -1.24537706e-01 +1.54084545e-02 +7.39472136e-02 +5.24833687e-02 -1.30297795e-01 +3.25154848e-02 -1.96337327e-01 +1.62607711e-02 +3.55072021e-02 -1.15508832e-01 +2.02881068e-01 +1.34909034e-01 +6.18485585e-02 +4.13542874e-02 +1.22155771e-01 +2.75685005e-02 -1.18583940e-01 -2.66580023e-02 -6.82113394e-02 +8.93037021e-02 +1.10533915e-01 +7.32385889e-02 +1.51679933e-01 +8.08406547e-02 +1.36948572e-02 -6.33217543e-02 -1.58864126e-01 +1.20824441e-01 +1.99751779e-02 -2.35926230e-02 +6.92275912e-02 -3.04662809e-02 -1.00848339e-01 -2.91986782e-02 +1.22858295e-02 -7.38897175e-02 -8.02157596e-02 -7.90317431e-02 -6.45844340e-02 +9.86177549e-02 -1.82187464e-03 +9.64214429e-02 +5.18946387e-02 -7.08030164e-02 -1.55490994e-01 +1.30692855e-01 +8.35568309e-02 -9.86063033e-02 -6.74800873e-02 -4.97082472e-02 +3.61003019e-02 +1.46533757e-01 +1.21152975e-01 +6.80195838e-02 -1.19631283e-01 -1.12330541e-01 -9.82228816e-02 +5.01592867e-02 +5.61708119e-03 -5.63312247e-02 +3.38215344e-02 -1.32098421e-02 -4.52721417e-02 +6.48946613e-02 -4.94655315e-03 +6.87651476e-03 -2.70984694e-02 -1.66498780e-01 -8.37853625e-02 -1.23412073e-01 +7.52242357e-02 +1.52655318e-01 -2.29715034e-02 -7.75598513e-04 -1.08479321e-01 -1.31128863e-01 +1.15775242e-01 -8.34081769e-02 +1.10927269e-01 -1.65552869e-01 +4.03335914e-02 -4.67076264e-02 +7.76921362e-02 +1.58639222e-01 +1.24335222e-01 +8.56006742e-02 +1.02532089e-01 +4.08893935e-02 +1.76367834e-01 -8.80078301e-02 +4.91573289e-02 +1.32402092e-01 -3.04130260e-02 -1.09355107e-01 +8.93703923e-02 +6.32492676e-02 +5.05786985e-02 -8.99249539e-02 -1.48427740e-01 -4.59422059e-02 -8.57224986e-02 -2.88891550e-02 +8.46655667e-02 -3.43529768e-02 -6.75753281e-02 -3.45157273e-02 -4.57975976e-02 -2.91011501e-02 +1.26561048e-02 -2.34263446e-02 -1.39384251e-02 -1.91434696e-02 -8.84226114e-02 +1.26592621e-01 -7.32877583e-04 +5.75008802e-02 +2.29564980e-02 +1.17309995e-01 -2.32357264e-01 -6.73222020e-02 -5.07821888e-02 -1.24049438e-02 -6.26014918e-02 +7.51922205e-02 +1.30826324e-01 -1.47331432e-01 +5.77365868e-02 -7.07630813e-02 +1.34163061e-02 -1.18633425e-02 +1.00264445e-01 +1.79497927e-01 +1.87038425e-02 +3.72397378e-02 +1.42417297e-01 +1.30688295e-01 -1.13565475e-01 +9.22706127e-02 +5.44761643e-02 +2.88684797e-02 +9.34376791e-02 +2.26736553e-02 -9.07957479e-02 -1.19492665e-01 -5.75844422e-02 -2.40412317e-02 +2.38987356e-02 -1.21167101e-01 -2.09688712e-02 -1.39718205e-01 +7.89236203e-02 -5.66149391e-02 -7.97704458e-02 -1.29094377e-01 +5.13585955e-02 +1.52106732e-01 +5.76897636e-02 +6.22891560e-02 +9.90844592e-02 +8.72152671e-02 +8.72060210e-02 +1.09957187e-02 -1.51323155e-01 -1.67536616e-01 -8.85486901e-02 +3.60982120e-02 +8.94461796e-02 -9.38336626e-02 +1.16445407e-01 +2.73961611e-02 -5.59763834e-02 -3.24372053e-02 +1.89356226e-02 +5.01659401e-02 -3.10630575e-02 +2.08016671e-02 +1.14816897e-01 +2.11352259e-02 -5.92445210e-02 -1.24418043e-01 +1.39458537e-01 +4.05213656e-03 -1.28888741e-01 -1.10579610e-01 -6.21561147e-02 -4.66241948e-02 -6.00477792e-02 +9.63293836e-02 -1.62752360e-01 -7.29746744e-02 -9.60752144e-02 +1.25679106e-01 +2.93105710e-02 +9.55988169e-02 +1.48124099e-02 +1.60621122e-01 -1.71977247e-03 +1.84806269e-02 -1.91300595e-03 -1.20592646e-01 -6.32998273e-02 -5.63967042e-02 +3.47030796e-02 +2.27813777e-02 -3.27215865e-02 -1.39604695e-02 +8.89452994e-02 +1.40329124e-02 +1.79039910e-01 -4.10799943e-02 -4.63798009e-02 -1.15983170e-02 -1.14388242e-01 -1.30565790e-02 +3.93577572e-03 +1.13780975e-01 +6.72896802e-02 +5.78838922e-02 +7.48634562e-02 -3.71568576e-02 -1.30498141e-01 +5.61831407e-02 -1.47265315e-01 -1.19552694e-01 -5.76658472e-02 -5.56803197e-02 +9.36291646e-03 +9.71409827e-02 +5.71825877e-02 +8.81406665e-02 +9.89454240e-02 +5.54421917e-02 +1.11375898e-02 -1.73017429e-03 -2.15339828e-02 -1.71134174e-01 +6.96433429e-03 -2.70902291e-02 +3.31680924e-02 -1.20635927e-01 +3.85503992e-02 +6.41367584e-02 +3.31375450e-02 +7.72101656e-02 +4.22229283e-02 +1.23859875e-01 -1.13554299e-01 +8.21609888e-03 +9.91766155e-02 +2.84052044e-02 -1.33438721e-01 +5.59308827e-02 -1.03276232e-02 +4.89805527e-02 +8.10762569e-02 -3.87166091e-03 +1.08583510e-01 -2.47037858e-01 -1.38533369e-01 +1.40652895e-01 +7.11083487e-02 -1.46807618e-02 -1.25808194e-01 +1.62269443e-01 +7.83717036e-02 -8.28616600e-03 -5.90222739e-02 +1.85416713e-01 +1.22619122e-02 -1.12328410e-01 -1.52052388e-01 -4.83475067e-02 -8.24449733e-02 -1.03029087e-01 +1.16224945e-01 +2.63753571e-02 +4.21980321e-02 +2.14118615e-01 -1.07860766e-01 +4.32461537e-02 -7.91769251e-02 +9.76360589e-02 -5.77751510e-02 -6.82155192e-02 -6.99276328e-02 -1.28876954e-01 +7.86158293e-02 +1.09981984e-01 +6.84158430e-02 +1.20353341e-01 +4.37158868e-02 +6.88960478e-02 -3.26124318e-02 -9.03743226e-03 -4.58958223e-02 +1.21233203e-02 -8.06909949e-02 -4.13407832e-02 +7.54671022e-02 +1.17963217e-01 +1.71209164e-02 +1.02128588e-01 -1.19669542e-01 +1.52791599e-02 +1.69553533e-01 -7.00551346e-02 -1.08990066e-01 -4.32689972e-02 +1.31092846e-01 -5.63880149e-03 +4.66349237e-02 +1.00479059e-01 -1.61316339e-02 -5.34640662e-02 -2.40605716e-02 +6.28877729e-02 -1.00535892e-01 -1.20417383e-02 +5.99652044e-02 -8.74909014e-02 -1.23250626e-01 -1.61338881e-01 +4.25907522e-02 +8.54627043e-03 +6.17359802e-02 +8.52472335e-02 -1.40234873e-01 +1.49495140e-01 -1.16347693e-01 +9.60492045e-02 -4.46824171e-02 -2.17048246e-02 +7.02736005e-02 +1.41460851e-01 +4.60712351e-02 -6.60145134e-02 +7.24727958e-02 +1.36236092e-02 -1.07236177e-01 -3.27677540e-02 -1.46458194e-01 +8.24292898e-02 +1.42328233e-01 +1.04581349e-01 +1.09540433e-01 -6.75942525e-02 -1.45087481e-01 +2.01084670e-02 +4.22143601e-02 -1.14006229e-01 +1.42536340e-02 +8.01190734e-02 +4.49889749e-02 +6.56719804e-02 -8.82166103e-02 +3.67491841e-02 -1.10187791e-01 +5.09539135e-02 -3.84810939e-02 -4.41291556e-02 -2.98097497e-03 -1.15442313e-01 -1.58107430e-01 -1.37575760e-01 +9.61345434e-03 +8.37764516e-03 -7.23510534e-02 +1.01882957e-01 -6.94456622e-02 +5.94780296e-02 +5.14092147e-02 -7.61933327e-02 +1.51019087e-02 -5.38094826e-02 -8.23974088e-02 +2.14243550e-02 +1.80833563e-01 -1.72516286e-01 +1.21613093e-01 -1.22881435e-01 +1.17193677e-01 +1.25999987e-01 -8.14472362e-02 +1.29554033e-01 +1.29754348e-02 -9.93748903e-02 -9.10464749e-02 +2.96754446e-02 -4.91902195e-02 -8.84257331e-02 -8.47127959e-02 -7.78331682e-02 -1.35152012e-01 +2.79017142e-03 +4.63440642e-02 +8.10047016e-02 +9.07466486e-02 -6.73875436e-02 -3.07222977e-02 -1.98404431e-01 +4.24247049e-03 -7.24770501e-02 -8.89816210e-02 -1.34732336e-01 -5.43863326e-02 -1.05813511e-01 +1.52349517e-01 +1.05145112e-01 -2.96311919e-02 +1.22602671e-01 -7.69099966e-02 -2.79990118e-02 -4.14721556e-02 +8.36623013e-02 +6.01520389e-02 +3.06061283e-02 -1.38195222e-02 +9.62492675e-02 -5.75257540e-02 +9.93368030e-02 -1.76214352e-02 +4.36084159e-02 -4.28686962e-02 +7.24979192e-02 -2.14853548e-02 -1.38682485e-01 -4.98087294e-02 +2.65524816e-03 +5.49138002e-02 +3.14776078e-02 +1.28237486e-01 +6.91029206e-02 +3.59180160e-02 +3.18563022e-02 +1.29503787e-01 +4.56355289e-02 +1.06673375e-01 -6.19197637e-02 -7.36680180e-02 -6.14332594e-02 -2.48987451e-02 -8.47453028e-02 -4.44458565e-03 -5.95776141e-02 +6.19271509e-02 +6.76655546e-02 -7.54320472e-02 +7.74542913e-02 +1.59217715e-02 -9.96791050e-02 -2.80042179e-02 -8.99709463e-02 -7.32328296e-02 -3.77592035e-02 +1.02521136e-01 -7.01136142e-02 +1.99257851e-01 -2.91447602e-02 +7.06444383e-02 -9.44967493e-02 -2.80162059e-02 -1.02433808e-01 -2.28908584e-02 -1.10574231e-01 +6.38681576e-02 -1.55233992e-02 +3.60529963e-03 +1.70876607e-01 +6.57396689e-02 -1.25281602e-01 +4.59684245e-02 -6.76686410e-03 +1.59346074e-01 -2.74433824e-03 +1.21527249e-02 +1.11347809e-01 +7.93225318e-02 +3.61790620e-02 -1.38493422e-02 +9.90823209e-02 +1.88812092e-01 +1.07534349e-01 +2.75234226e-02 -1.63233519e-01 +1.06206141e-01 -1.02859758e-01 -1.04471907e-01 -5.64688817e-02 +1.31151065e-01 +3.21060233e-02 +5.65440841e-02 -8.12227353e-02 +5.08395210e-02 +3.13543193e-02 +4.92081940e-02 +6.81433640e-03 +4.33443673e-03 -9.95723158e-02 -1.05412483e-01 +4.35734354e-02 +6.80573136e-02 -1.10450089e-01 +5.89425378e-02 -3.14243138e-02 +4.69183885e-02 -3.43500897e-02 +4.48075607e-02 +1.11438572e-01 +4.44299802e-02 -8.25758874e-02 +9.42488834e-02 -5.86325414e-02 -1.46768883e-01 -8.98678377e-02 +1.06498346e-01 -2.91855410e-02 +8.67058560e-02 -1.73764527e-02 +8.10948759e-03 -5.30572757e-02 +8.98725912e-02 -6.22387230e-02 -7.35490322e-02 -6.67178035e-02 +1.13192841e-01 -7.51150772e-02 -9.96331275e-02 +5.55566438e-02 +1.12835780e-01 +1.33415163e-01 +1.15635926e-02 -5.89995086e-02 +1.53413236e-01 -8.84732753e-02 -7.18069449e-02 +4.56829630e-02 -8.34631622e-02 -2.62368638e-02 -1.62119210e-01 -6.00768544e-04 +7.80735463e-02 +3.56667303e-02 -4.52009216e-02 +1.21606469e-01 -5.74639626e-02 -1.02153040e-01 -7.45960325e-02 +1.57997653e-01 +1.00052826e-01 +8.27276707e-03 +8.08887631e-02 +3.80336046e-02 +5.99964745e-02 +1.28617203e-02 -1.05106741e-01 -9.66744348e-02 +7.89988860e-02 +3.82152312e-02 +7.01199006e-03 -3.61021794e-02 -4.72826092e-03 -5.22109121e-02 -3.57649811e-02 +4.04095044e-03 -4.82724383e-02 +4.78536524e-02 -4.39785831e-02 -1.77867949e-01 -6.53187409e-02 -7.38891214e-02 -5.30445501e-02 -1.06196158e-01 -7.25323036e-02 +1.24515578e-01 +9.48677063e-02 +2.85511687e-02 -7.33288005e-04 -1.03187514e-02 -5.32718971e-02 -2.20334008e-02 +5.52399419e-02 -6.75132126e-03 +9.07692090e-02 -3.89833301e-02 +6.00511879e-02 -1.39169320e-01 -7.73564726e-03 -3.12007591e-02 -1.27469137e-01 -6.03726208e-02 -1.54723525e-01 +4.29601334e-02 -3.41542512e-02 -7.28737516e-03 -9.19940621e-02 -6.01569340e-02 +3.25428471e-02 +4.55285981e-02 -3.24216820e-02 +3.65960114e-02 -1.36871740e-01 +2.44490281e-02 -1.20387107e-01 -5.25731854e-02 -9.62607376e-03 +5.54668121e-02 -2.32303943e-02 +1.42072700e-02 -6.86691552e-02 +1.53750762e-01 +7.99808875e-02 -6.82460219e-02 +1.50295436e-01 +1.30178362e-01 -8.60305037e-03 +7.64400959e-02 -5.43956757e-02 -1.83956251e-01 +4.23626229e-02 +1.27622321e-01 +7.99684823e-02 -9.86241996e-02 +1.52530074e-01 -1.22248136e-01 +3.22988145e-02 -2.79516634e-02 -1.14649571e-01 +1.34931728e-01 +7.83492252e-02 +2.10476536e-02 -1.15584552e-01 -2.10435152e-01 -8.45146626e-02 -4.02787179e-02 +6.34773076e-02 +4.50538918e-02 +5.35823740e-02 +6.80918023e-02 -7.54903406e-02 -5.32505140e-02 -3.24476548e-02 -5.27676642e-02 -8.49759206e-02 +4.05452512e-02 -1.72954828e-01 -6.97345287e-02 -1.00921631e-01 +1.85366590e-02 +4.52021956e-02 -1.54036535e-02 -6.02604412e-02 +1.08025156e-01 +2.83429921e-02 -3.00483909e-02 -6.56511113e-02 +1.32133439e-01 +2.30556522e-02 -1.38601303e-01 -4.44523171e-02 +1.05321079e-01 +4.32607159e-02 +3.70579469e-03 -6.94018751e-02 -7.93612748e-02 +4.47130315e-02 -1.30935967e-01 -9.84320883e-03 +1.02924503e-01 +7.47804064e-03 -1.36443913e-01 +5.66894673e-02 +2.96413004e-02 -1.65719241e-01 +3.53307649e-02 -3.16125453e-02 -1.19809117e-02 +1.19121373e-01 +7.21465563e-03 -7.71197826e-02 -1.21037707e-01 -1.07228979e-01 -8.97106305e-02 -5.86055918e-03 +1.89299528e-02 -9.24470369e-03 -1.34530321e-01 +5.73260011e-03 +1.39616162e-01 +7.03857988e-02 +6.13880530e-02 -9.31337103e-02 -2.29205117e-02 +1.15602165e-01 -2.13656630e-02 +1.04558051e-01 +4.18986268e-02 -1.34709463e-01 -6.74752193e-03 -5.12361154e-02 +1.08344099e-02 +3.59960459e-02 +1.37996644e-01 -2.37393118e-02 +6.37129918e-02 -3.53770740e-02 +1.92029942e-02 +1.11499242e-01 +1.65551439e-01 -1.06844693e-01 -9.86066312e-02 +1.32057965e-01 -3.04911705e-03 -6.96293637e-02 +8.03223904e-03 +2.95843054e-02 +1.25347842e-02 +6.90267757e-02 +8.30213577e-02 +4.78870124e-02 -2.42124312e-03 -2.86840498e-02 -8.26868564e-02 +1.27952412e-01 +1.14357501e-01 +1.49707096e-02 -3.32784839e-02 +1.74058780e-01 +1.71138197e-01 -2.52756812e-02 -4.32703868e-02 +4.86678034e-02 -4.57939804e-02 -1.36896491e-01 -8.33072960e-02 +1.91450655e-01 +2.57398356e-02 -5.59875630e-02 +6.82386607e-02 -1.56224016e-02 +1.16434991e-01 -5.67548610e-02 -1.32265821e-01 +1.27462912e-02 -1.61970213e-01 +7.17259897e-03 +7.55749270e-02 +1.16829596e-01 -1.22249000e-01 -3.27196047e-02 +7.34235942e-02 +5.91675490e-02 -1.23288520e-01 -3.01903747e-02 +1.26856118e-01 -4.02303040e-02 -1.55004770e-01 -1.38006240e-01 -1.24161780e-01 +9.43070501e-02 -4.97598480e-03 -1.00525387e-01 +2.04002690e-02 +6.80618510e-02 -4.81923185e-02 +1.61199003e-01 -2.89624203e-02 +5.02002612e-02 +9.13957655e-02 -7.19231665e-02 +1.48356706e-02 +1.25993907e-01 -2.25158650e-02 -4.18097479e-03 +2.40003560e-02 -4.50310707e-02 -8.69981498e-02 +6.63075298e-02 +1.54447835e-02 -3.58132087e-02 +8.91455859e-02 -3.94118726e-02 +1.43205851e-01 -1.02276467e-02 -5.91888502e-02 -7.05924779e-02 +8.74481797e-02 +8.40276852e-02 +1.75976697e-02 -5.68418428e-02 -9.68899056e-02 -7.18511939e-02 -1.18185632e-01 +1.53544862e-02 +1.26252860e-01 -1.40364796e-01 +2.02840678e-02 +4.14658226e-02 -9.28135440e-02 -1.14580072e-01 +1.45666644e-01 -7.30169490e-02 -1.13850590e-02 +3.25526856e-02 -5.10361604e-02 -1.05634980e-01 -9.77282971e-02 +6.29136786e-02 +4.22543250e-02 -4.82051037e-02 +8.41461420e-02 -5.95977642e-02 -7.76043907e-02 +1.41826551e-02 +3.82227860e-02 -9.92064700e-02 +4.45506498e-02 -1.16721593e-01 -5.01660220e-02 +4.38804030e-02 +1.53573409e-01 -8.37018490e-02 +5.65614998e-02 -9.30265039e-02 -1.43162265e-01 -7.06751943e-02 +8.96611959e-02 +2.11021587e-01 -3.86153944e-02 -1.15380652e-01 +9.99872461e-02 +2.20572930e-02 -1.78659126e-01 -1.28117260e-02 -9.19277370e-02 -1.26846635e-03 -1.72814801e-02 -3.66146229e-02 +4.12861966e-02 +9.75844562e-02 +4.41376232e-02 +3.66628096e-02 +9.24414843e-02 +8.05499926e-02 -1.35005429e-01 +8.94154310e-02 +1.25065729e-01 +4.01413441e-02 -3.39043066e-02 -6.85718954e-02 -5.74527234e-02 -3.58749963e-02 -9.49610248e-02 +8.04435238e-02 +1.07552193e-01 -1.04017623e-01 +5.95769696e-02 -2.94979895e-03 +7.93474466e-02 +1.34304408e-02 -2.39362498e-03 +1.88317642e-01 -4.45577949e-02 +1.14140116e-01 -8.19617435e-02 +1.63439140e-01 +7.50754178e-02 +5.29550761e-02 +4.69365418e-02 +6.79066852e-02 -4.76726331e-02 -1.12110391e-01 -7.68256709e-02 +6.61759377e-02 +9.29966290e-03 -1.08547360e-01 -3.26311924e-02 -8.32428634e-02 -2.63610482e-02 +6.19002134e-02 +1.40739813e-01 +1.24144584e-01 +5.38402190e-03 -8.79189670e-02 +4.89205271e-02 +7.33429864e-02 +1.64497688e-01 +2.10775211e-01 -7.92811587e-02 -9.10196975e-02 -1.15038812e-01 -2.35032700e-02 +7.45622069e-02 -3.10501251e-02 +1.92695186e-01 +9.51009318e-02 -4.21653166e-02 +8.08593333e-02 +2.30954643e-02 +1.72947153e-01 +2.70093530e-02 +8.46209377e-02 -4.65617552e-02 -1.36695176e-01 -1.42935827e-01 -4.69766110e-02 +4.31379154e-02 -3.69271785e-02 +3.90854478e-02 -6.25442788e-02 +6.11478910e-02 -5.60248494e-02 +8.33238065e-02 -3.95608619e-02 -1.01242863e-01 +7.25441426e-02 -3.36309001e-02 -3.41682397e-02 +1.36057168e-01 +7.31524602e-02 -1.52685810e-02 -6.56169727e-02 +7.95992315e-02 +1.56364813e-01 +8.81090462e-02 +3.12671810e-02 -4.22303230e-02 -3.57858054e-02 +1.27244294e-01 +9.57336626e-04 +1.22288860e-01 -1.41872630e-01 +1.34613812e-01 -1.56757742e-01 -7.15154037e-02 +1.40377522e-01 +2.83081178e-02 +8.42217356e-02 -2.49246005e-02 +1.42373949e-01 +1.07585236e-01 -4.81541194e-02 -1.13529831e-01 -1.73579678e-01 +1.43342521e-02 +3.16342562e-02 -7.59708360e-02 +5.01978546e-02 +1.45227388e-01 -2.41400097e-02 -3.56314406e-02 +6.83175325e-02 -8.72720852e-02 -6.61963522e-02 +5.29866740e-02 +4.73042158e-03 +5.44277951e-02 +9.38229635e-02 -4.92316112e-03 -7.15905651e-02 +1.36192098e-01 -7.36004300e-03 +3.05535384e-02 -4.15720753e-02 +3.20259035e-02 -2.07092557e-02 +5.85907996e-02 -7.08497828e-03 +8.97304562e-06 -1.17976226e-01 -5.05797453e-02 +7.46181011e-02 +1.48209631e-02 +6.70810649e-03 -4.15026732e-02 -1.13078423e-01 -1.62444755e-01 -8.21895897e-04 +1.46847084e-01 +2.73473673e-02 -1.69876695e-01 -5.31744137e-02 -1.02689750e-01 -1.04019247e-01 -7.75997620e-03 +3.94511111e-02 -2.70071370e-03 +1.62525736e-02 +1.93132475e-01 +1.03292882e-01 -1.56052142e-01 +8.76317099e-02 -1.15126185e-01 -2.04706993e-02 +1.07192971e-01 -1.97728425e-01 +1.47255342e-02 +1.11310378e-01 -1.38045279e-02 -1.22131985e-02 +1.37028754e-01 +9.31666568e-02 -1.33080289e-01 +7.93100074e-02 -1.06803596e-01 -1.25725269e-01 -4.14487645e-02 -5.57127409e-02 -2.75059268e-02 -6.23334870e-02 -1.30783498e-01 -1.22124106e-01 -6.22920953e-02 +6.05358137e-03 -1.08810887e-02 -1.28448810e-02 +1.26058310e-01 +2.57357452e-02 -8.79997984e-02 +8.98938044e-04 -1.16904162e-01 +5.84135018e-02 +6.02432787e-02 +4.12938446e-02 -3.60451709e-03 -1.08820692e-01 +8.74559209e-02 +3.20536643e-02 -6.36469722e-02 -2.31122468e-02 +2.38205940e-02 +1.03197195e-01 -1.23883903e-01 -2.25526169e-02 -2.00757571e-02 +3.24652940e-02 +4.15121317e-02 -2.96111852e-02 -4.84902896e-02 +1.14119751e-02 +5.22871912e-02 -8.59914422e-02 -1.04498856e-01 -1.15563318e-01 +4.41172235e-02 -9.81990993e-02 -6.10979972e-03 +1.37729481e-01 -1.18565723e-01 -7.58990496e-02 +7.96662569e-02 -2.80113611e-02 +1.35090828e-01 -8.52018446e-02 -7.74020180e-02 -5.28975427e-02 -4.99557033e-02 +3.25375460e-02 -8.54905769e-02 +1.25391066e-01 -6.53834864e-02 +2.42447555e-02 +1.23757519e-01 -6.35378435e-02 -4.42394912e-02 -1.33280516e-01 +2.84297168e-02 -1.43836707e-01 +1.39455557e-01 +9.20781791e-02 +8.80146027e-02 -1.16048537e-01 +9.36011374e-02 -1.28929257e-01 +5.46268076e-02 -5.83326034e-02 -2.41147112e-02 +5.96392490e-02 -5.53450063e-02 -1.16416737e-02 -4.33287099e-02 -1.23397738e-01 -4.96922620e-02 -1.37107000e-01 -1.41131535e-01 -6.97712153e-02 +1.09633848e-01 -1.46036185e-02 -9.92834684e-04 +3.65052484e-02 -4.78693508e-02 +2.57761236e-02 +1.01682030e-01 +2.61738505e-02 -4.00728220e-03 -5.51976636e-02 +5.52343205e-02 +1.39523029e-01 +1.27778322e-01 -9.36569199e-02 -4.35634889e-02 -6.77756295e-02 -2.46971268e-02 +6.48336634e-02 -4.79097217e-02 +4.21153679e-02 +1.39628276e-01 +3.64206359e-02 -1.48445189e-01 +1.10768773e-01 -4.49910900e-03 +2.04566076e-01 -1.28851458e-01 -1.03914060e-01 +1.05317876e-01 -1.66443989e-01 -1.03392161e-01 +1.06817521e-01 -1.50339752e-01 -4.32108622e-03 -5.97144179e-02 +4.38150205e-02 -1.13965444e-01 +7.60479048e-02 -1.34320483e-01 +2.06796993e-02 +1.63819771e-02 +7.89552275e-03 -1.13069251e-01 +1.00865074e-01 -1.19987942e-01 -9.85995233e-02 +1.14748135e-01 +4.24208399e-03 -7.11041838e-02 +8.41501281e-02 -7.69331977e-02 +5.92031293e-02 -5.43529168e-02 +6.14588112e-02 -2.95721684e-02 -5.88031597e-02 +5.45017608e-02 +7.60077909e-02 +2.91471295e-02 -1.70771599e-01 +2.47722827e-02 -7.82601833e-02 +1.05164004e-02 +2.42845565e-02 -1.78154614e-02 +5.83899021e-02 -8.97422619e-03 -1.21667972e-02 +3.67459729e-02 +1.25347599e-01 +8.86482932e-03 -1.20043606e-01 -1.11208238e-01 -6.58231005e-02 -1.91494614e-01 +1.14856787e-01 -5.27323633e-02 +8.71890038e-02 +6.50146753e-02 -6.78088143e-02 +4.59843688e-02 +7.24258795e-02 +9.56040397e-02 -6.71689212e-02 -6.97326213e-02 -1.16732471e-01 -6.72785044e-02 +1.10799773e-02 +3.76072079e-02 +2.12370846e-02 -4.90894765e-02 +6.77262098e-02 -1.13464788e-01 +4.36846875e-02 +2.96718385e-02 -1.28023997e-01 -1.44166350e-01 +1.08646482e-01 +6.14366843e-04 -1.67486161e-01 +6.82970211e-02 -9.89337713e-02 -1.24403000e-01 -1.11470558e-01 -3.88726480e-02 -1.02462418e-01 +1.27888098e-02 +8.85821879e-02 -8.16063210e-02 +6.86068833e-02 -5.59513420e-02 -5.24614789e-02 +7.58363903e-02 +1.55912608e-01 -6.31082654e-02 +3.48995975e-03 -3.88359539e-02 +9.89204571e-02 +6.15452528e-02 +1.26514465e-01 +1.46925151e-01 -1.04951389e-01 -2.00404540e-01 -8.23047832e-02 -2.44844593e-02 -4.46639284e-02 -3.12320665e-02 -5.55284321e-02 +9.54760388e-02 -1.69738829e-02 +1.14307351e-01 -2.83065927e-03 +1.59473568e-01 -6.30982667e-02 +2.83022020e-02 -1.36458144e-01 +5.97699657e-02 -3.24082114e-02 -2.87183970e-02 +1.87921554e-01 -1.87293943e-02 -5.12683652e-02 +9.76054184e-03 +1.31425336e-01 -4.58716303e-02 -1.65167134e-02 -3.76009271e-02 -1.09326909e-04 -1.17003255e-01 +5.65947741e-02 +9.08788219e-02 +9.53677148e-02 -5.18286563e-02 -1.60909012e-01 -6.24508485e-02 +1.16242014e-01 +7.85688609e-02 -1.84015669e-02 +6.07546270e-02 +3.72861624e-02 -1.18990541e-01 +1.38498265e-02 +1.10911965e-01 +9.55129638e-02 -5.14713302e-03 -8.22401643e-02 +1.39779553e-01 -5.19192331e-02 +9.27675422e-03 +1.55136704e-01 +3.07481624e-02 +9.28318650e-02 +7.72937015e-02 +1.04195133e-01 +9.24895182e-02 +4.58423346e-02 +2.78535951e-03 -4.97965794e-03 -4.72813845e-02 -5.23706675e-02 +1.04917698e-01 -1.71471462e-02 -1.35413513e-01 +5.06421104e-02 -6.33195788e-02 -3.35606821e-02 +1.50143385e-01 +8.17123353e-02 +2.75576822e-02 +9.20264646e-02 +9.68177989e-02 +7.47927353e-02 -9.67005342e-02 -9.36771259e-02 -9.19415653e-02 -2.56179855e-03 -1.66676119e-01 -9.47782025e-02 -1.43791199e-01 -3.99836153e-03 +3.47621813e-02 -2.77773496e-02 +7.59670660e-02 -1.49779324e-03 +1.28513828e-01 -5.65178394e-02 -1.33243114e-01 -3.52924280e-02 -1.34216532e-01 +9.53464806e-02 -1.03697538e-01 -1.47229537e-01 +5.98732866e-02 +7.96809122e-02 -7.65016228e-02 -6.39029033e-03 +1.25331923e-01 +1.39161255e-02 +3.97772975e-02 -1.25585988e-01 +9.26679820e-02 -7.81505033e-02 +8.08107480e-02 +8.47340748e-02 +8.33619162e-02 +8.78426526e-03 +3.96430157e-02 +1.19892880e-01 +1.02120183e-01 +1.37790680e-01 +7.97121301e-02 -1.20665483e-01 -1.13549612e-01 +6.01157658e-02 -7.98854604e-02 +3.92991826e-02 +6.21555652e-03 -8.79648924e-02 -2.01368220e-02 -1.54203445e-01 +7.52848666e-03 -1.72974557e-01 -3.58153433e-02 +5.54182194e-02 -4.84900223e-03 -1.27862364e-01 -6.11733012e-02 +1.47292381e-02 -6.38116896e-02 -1.71619784e-02 +1.61853448e-01 -7.62332901e-02 -1.13506511e-01 +4.99824695e-02 -7.13145407e-03 -5.75233027e-02 +1.54596595e-02 +2.04675272e-03 +1.04645468e-01 -1.22840174e-01 +5.33604622e-02 -2.59293243e-02 -1.37389421e-01 -1.26126036e-01 -2.50334740e-02 +1.13030583e-01 -1.26154378e-01 -6.70124143e-02 -3.17606032e-02 -5.53358495e-02 +8.82059634e-02 -1.01130091e-01 +1.25488237e-01 +7.07037896e-02 -4.66512255e-02 +4.18104865e-02 -2.89389938e-02 -8.87584239e-02 +5.35947382e-02 +1.30039290e-01 +1.67211235e-01 -1.15330964e-01 -4.42221612e-02 +4.81711701e-02 +1.29857749e-01 -4.20334749e-02 +5.27728498e-02 +1.10919729e-01 -1.72236845e-01 +2.21367292e-02 -1.18971452e-01 +1.39046714e-01 +5.37645631e-03 +8.08097050e-02 -6.80714697e-02 +1.35075614e-01 -7.17645809e-02 +5.94782196e-02 -1.11123137e-01 +5.87149803e-03 +7.81587437e-02 -7.56908879e-02 +7.81519860e-02 -3.17441113e-02 -6.11037388e-02 +1.33612186e-01 -1.00026660e-01 +1.10341258e-01 -3.39605473e-02 -2.64587365e-02 +9.03230160e-03 -8.78587142e-02 +5.00208847e-02 -1.32008806e-01 +6.73566535e-02 -1.34318635e-01 +1.54092118e-01 -7.25333691e-02 -1.26770332e-01 -8.20759684e-02 -2.60296091e-02 -1.69113278e-01 -1.06060393e-01 -2.06288490e-02 +1.40882581e-01 +7.97955617e-02 +1.27934799e-01 -3.59446392e-03 -1.13180373e-02 -2.97407154e-02 +5.73642030e-02 -7.03852996e-02 +1.12018576e-02 -1.36007115e-01 -5.36561646e-02 +3.60038574e-03 -6.62315637e-02 +5.36954366e-02 -8.00613686e-02 -5.36929071e-02 +2.15578482e-01 -1.32916853e-01 +6.60292283e-02 +8.31741318e-02 -1.02293096e-01 +1.29941136e-01 +1.44754415e-02 +8.41079652e-02 -1.08067922e-01 +9.31501016e-02 -8.16775188e-02 -4.53830808e-02 +5.82261123e-02 -7.12196678e-02 -1.05102293e-01 -1.22503592e-02 -1.89267565e-02 -4.31485213e-02 -2.36299587e-03 -5.70365041e-02 +2.97128446e-02 -8.17891806e-02 -3.66503038e-02 -6.37150854e-02 -3.38255167e-02 -2.14169063e-02 +1.24068871e-01 +2.01784298e-02 +1.28598481e-01 +9.08162519e-02 +4.65501752e-03 -2.54479907e-02 +3.83800715e-02 +1.06055900e-01 +8.65692273e-02 +3.23214419e-02 +7.73270503e-02 +1.54733270e-01 -2.86470596e-02 +1.92707055e-03 -1.56296659e-02 +4.60439138e-02 -2.57197022e-03 +8.46542493e-02 +1.34635344e-01 +1.04775280e-01 +1.13312021e-01 -7.27675855e-02 -1.27375841e-01 +1.90570485e-02 +5.53547554e-02 +5.41801983e-03 +4.43359688e-02 -1.02025554e-01 +4.80444953e-02 -1.34499399e-02 -8.89467821e-02 -1.17174894e-01 -1.52067453e-01 -1.05801240e-01 +1.18717238e-01 +1.49702821e-02 -1.16732366e-01 +4.54632714e-02 +1.25743538e-01 +2.89274044e-02 +1.10509895e-01 +1.31521776e-01 -7.77898580e-02 +3.09127886e-02 +6.69026524e-02 -8.85908492e-03 -9.28040892e-02 -6.66445345e-02 -8.31503421e-02 +9.77056287e-03 -2.08848417e-02 +5.32972254e-02 +1.20951116e-01 -4.06607352e-02 +9.00821015e-02 -1.03735507e-01 -1.29697725e-01 +1.09775402e-01 -1.61344092e-02 -9.01236460e-02 -8.46554711e-03 +3.91499288e-02 -5.86827882e-02 +2.73430105e-02 -6.08225800e-02 +1.98277421e-02 +1.88406147e-02 +1.01364776e-01 +1.21275879e-01 -1.05703667e-01 -4.50297669e-02 +1.24083698e-01 -1.17940046e-01 +9.33044851e-02 -1.87546480e-02 -1.05064929e-01 -1.20574020e-01 +1.36910796e-01 -7.86348730e-02 -1.43934116e-01 -1.20873414e-01 +8.32699463e-02 -1.08752571e-01 -1.80664241e-01 -5.96785955e-02 +6.95594102e-02 -3.61720659e-02 +6.09594621e-02 +1.11965239e-01 +1.91049352e-01 +1.52744204e-01 +2.80999485e-02 +5.18381931e-02 -8.16118717e-02 +8.21901411e-02 +2.32082922e-02 -1.31795734e-01 -3.21333185e-02 -8.69266987e-02 +9.83461291e-02 -2.72370670e-02 -1.77586805e-02 +1.38605144e-02 -5.61803579e-02 -2.92924023e-03 -4.65182625e-02 +1.37406141e-02 -1.03334472e-01 -6.57065064e-02 -9.49169174e-02 -9.75199118e-02 +7.32296780e-02 +1.27952337e-01 -7.79103767e-03 +1.32283404e-01 +1.17622897e-01 +1.05447739e-01 +6.73956499e-02 +1.59240924e-02 -4.28850502e-02 -2.21209996e-03 -1.41342357e-01 +2.57149469e-02 -9.85820144e-02 -3.01266294e-02 +1.08222328e-01 -4.70195375e-02 -7.60136247e-02 +8.44579190e-02 +1.79290950e-01 +1.93957221e-02 -8.32020938e-02 -8.95814225e-03 -2.33536288e-02 -6.60264716e-02 -6.68701679e-02 +9.45813060e-02 +3.97397159e-03 +1.57339677e-01 +9.32550505e-02 +1.12284549e-01 -2.45545562e-02 -3.08904834e-02 -1.16066441e-01 +1.95254125e-02 -1.12760272e-02 +9.93948430e-02 +1.08710630e-02 -2.79159881e-02 +6.09709881e-02 -7.65094459e-02 +9.60417166e-02 +8.02457333e-02 -1.51070982e-01 +9.75675061e-02 -1.48887634e-02 -1.48097456e-01 -1.16390750e-01 +4.64390218e-02 +2.65383162e-02 +6.33738413e-02 +6.52663186e-02 +4.17522117e-02 -1.67202100e-01 -5.70005663e-02 -1.07849920e-02 -2.11660620e-02 -1.30373746e-01 -1.40333086e-01 +7.01549426e-02 +9.66639146e-02 +1.08679906e-02 -7.08199367e-02 +5.12408167e-02 -6.97802706e-03 -3.30108032e-03 -2.58416623e-01 -1.41701669e-01 +6.73225746e-02 -7.79410675e-02 -6.66184211e-03 +7.82173406e-03 -6.50865361e-02 -4.32861745e-02 -1.61506712e-01 +4.74214926e-02 +7.42784888e-02 +1.37706816e-01 +8.08518231e-02 -4.57839742e-02 +7.07032606e-02 +7.63464868e-02 -3.47622856e-03 +5.71237244e-02 +6.68822452e-02 -3.29939388e-02 -1.33015215e-01 +5.43455668e-02 -4.22093878e-03 +6.87248558e-02 +1.50946945e-01 -7.96196014e-02 +7.52061456e-02 -9.73371118e-02 +7.55846128e-02 -4.15112823e-02 +7.51514882e-02 -9.23545938e-03 -2.56313495e-02 +1.35893986e-01 +1.22670643e-01 -1.25458136e-01 -9.04642940e-02 -9.85606909e-02 -8.18118230e-02 -4.20830138e-02 +1.88820302e-01 -6.12141639e-02 +3.45869921e-02 +1.76525399e-01 +4.37095612e-02 +4.66999710e-02 -1.54604937e-03 +1.20337745e-02 +2.51344088e-02 -6.97725043e-02 +6.88921139e-02 -2.91541070e-02 -1.07262708e-01 -1.63248569e-01 -8.87560174e-02 +4.09868509e-02 -6.97292238e-02 -2.05154959e-02 -2.21890435e-01 -1.12529039e-01 +3.17908674e-02 -7.39459842e-02 +1.32109616e-02 -1.21299550e-01 +7.93591514e-02 +7.51067400e-02 -7.00554624e-02 +3.91273387e-02 -2.28558611e-02 -9.24478006e-03 +1.32953227e-01 -2.68815793e-02 +1.54074803e-01 -1.09183684e-01 +3.31247263e-02 +6.36329502e-02 +8.25458243e-02 -5.78855574e-02 -8.15534070e-02 +1.40159011e-01 -3.03882174e-02 +1.16096012e-01 -7.58312875e-03 +4.00613211e-02 +2.74340305e-02 -1.39956340e-01 +1.20377034e-01 -5.44204451e-02 -2.34211478e-02 +1.11799620e-01 +1.85133874e-01 -5.35883904e-02 -1.32684410e-01 -1.23695828e-01 -2.04509553e-02 -1.07243128e-01 +1.34057060e-01 +3.19215097e-02 +8.44684392e-02 +1.44901900e-02 +3.49639705e-03 +1.44575834e-01 +7.33689815e-02 -6.03285544e-02 +7.88979381e-02 -4.17205580e-02 -6.00858964e-02 +7.10198060e-02 +2.14855392e-02 +5.60829453e-02 -5.14278188e-02 -5.62042668e-02 +4.46583405e-02 +1.25236228e-01 +4.83501889e-02 +1.20326988e-01 -4.85530794e-02 -9.65780988e-02 +9.54737887e-02 +8.37464035e-02 -8.54936540e-02 -1.00020476e-01 +1.17890477e-01 -7.47301131e-02 +1.11230284e-01 -4.51372452e-02 +4.59485874e-02 +3.69696170e-02 -1.44275829e-01 +2.19517816e-02 +1.02760918e-01 -7.82089829e-02 +8.86814743e-02 +1.11604907e-01 +1.20272264e-01 -1.01686925e-01 +3.05331647e-02 +6.23620190e-02 +9.48805436e-02 +3.85143906e-02 +6.90277070e-02 -1.74884256e-02 +6.61944449e-02 -3.91567200e-02 -6.54258206e-02 -7.67252920e-03 +1.59745649e-01 +4.18920293e-02 -1.02940820e-01 -8.12419727e-02 -3.44852842e-02 +7.57646710e-02 -3.25132385e-02 -1.11629136e-01 +1.75872818e-02 +7.47852102e-02 -8.64497852e-03 +3.43654603e-02 -6.77195713e-02 +1.35356665e-01 -8.48462507e-02 +5.47906905e-02 +9.20239836e-02 -1.15303472e-01 -3.20768319e-02 +8.23637694e-02 -2.40444914e-02 +1.11470044e-01 +6.70506135e-02 -1.80042624e-01 +5.95890395e-02 -4.27416749e-02 -1.36921713e-02 -1.08141318e-01 +3.02817374e-02 +2.61429437e-02 +1.06803320e-01 -1.53491586e-01 +8.74468759e-02 -8.37609693e-02 -4.57579717e-02 +7.76762664e-02 -1.24998979e-01 +3.65900770e-02 +1.81258041e-02 +3.62600666e-03 +6.85489327e-02 -5.99259175e-02 -2.06540395e-02 -1.45214915e-01 -1.05387375e-01 -7.83873629e-03 +1.86198894e-02 +4.01826389e-02 -5.43595999e-02 +9.66535583e-02 +1.25660196e-01 +5.07305190e-02 -1.36733502e-01 +1.22442216e-01 -8.15293491e-02 -1.56690583e-01 -1.72004968e-01 +2.65562977e-03 +9.97194275e-02 -1.50918841e-01 -6.05732761e-02 +9.39173996e-02 +6.76318854e-02 -4.02931981e-02 +4.65539955e-02 +1.32653005e-02 -5.81871383e-02 -1.34506166e-01 +3.14961188e-02 +1.96973830e-02 +5.09395562e-02 -6.66017383e-02 -9.02760476e-02 -4.51667085e-02 -1.21220388e-01 -1.20259479e-01 +3.53633724e-02 +1.68303758e-01 +1.56902358e-01 -2.02989444e-01 -1.36899665e-01 -1.05017498e-01 +7.98417032e-02 +1.20656658e-02 -7.91772828e-02 +3.83514911e-02 -7.62263983e-02 +3.22754905e-02 +5.40138856e-02 -1.04859255e-01 -1.28565833e-01 -7.75945187e-02 -7.61953369e-02 +2.20950749e-02 +1.70690678e-02 +2.37002433e-03 -1.05702067e-02 +9.90839303e-02 -2.27907579e-02 +3.11043509e-03 -5.35210548e-03 +1.08806737e-01 -1.37093961e-01 +7.17519298e-02 -7.54464418e-02 +2.89252289e-02 -1.15044497e-01 +3.40813920e-02 -2.01430228e-02 +1.79520342e-02 +8.10722262e-03 +3.09582576e-02 -6.91604391e-02 +9.72028822e-02 -1.11527078e-01 -5.97658306e-02 -1.70866832e-01 -1.04856141e-01 +5.24406247e-02 +6.96689561e-02 -1.17073335e-01 -8.29944685e-02 -9.90569964e-02 +5.36804646e-03 +1.13444671e-01 -1.39938612e-02 +6.69791996e-02 -1.68343671e-02 -4.46365103e-02 -1.05005011e-01 +1.30482480e-01 -1.51535258e-01 -8.78640413e-02 -3.69247198e-02 +1.41199365e-01 -5.12985811e-02 +2.87081134e-02 -1.15904093e-01 +1.36768624e-01 -8.09109285e-02 -1.48594961e-01 -7.89161026e-02 +1.06158089e-02 +4.59069274e-02 -9.32060778e-02 -4.61236481e-03 -8.16276819e-02 -2.39705332e-02 +1.35550424e-01 -1.24393202e-01 +9.70263928e-02 -5.96145019e-02 -1.08032942e-01 +4.20488268e-02 +4.93891835e-02 +1.33590251e-01 +6.95372093e-03 +3.00990250e-02 -9.26463958e-03 +1.21804975e-01 -4.75986712e-02 +8.33880156e-02 -6.20129146e-02 -6.85280710e-02 -1.37653157e-01 +2.44233944e-02 +7.92980716e-02 -1.37979284e-01 -7.08517656e-02 -4.78672348e-02 +1.33752907e-02 +1.32831946e-01 +2.65477654e-02 +1.03090614e-01 +2.24149272e-01 +1.05098471e-01 +1.18824825e-01 -2.32686922e-02 -9.88358110e-02 +1.46576852e-01 -9.75759476e-02 -3.46346274e-02 +7.83873349e-02 +1.94160338e-03 +6.39018640e-02 +4.00226191e-02 -5.73350079e-02 +9.30307582e-02 +2.57919282e-02 +1.35609824e-02 +4.97569479e-02 +9.24255624e-02 -4.59018871e-02 +1.23854563e-01 -1.25765249e-01 +4.16073203e-02 +6.05443083e-02 +1.28809974e-01 +1.65102333e-01 -1.06745176e-01 -3.95015553e-02 -5.65522425e-02 -1.65800601e-01 -4.14798409e-02 +9.33335423e-02 +3.42261195e-02 -1.27441093e-01 -2.17188392e-02 -5.78938089e-02 +1.10574238e-01 -9.99066532e-02 +7.55564272e-02 +9.66306254e-02 -7.49197677e-02 -8.36051181e-02 +5.60966842e-02 +1.54645853e-02 -2.24143639e-02 -7.05449581e-02 -1.44101933e-01 +2.02634856e-02 +9.30642486e-02 +3.14568169e-02 +5.85776009e-02 +6.01993538e-02 -9.98688266e-02 -1.99485198e-01 +3.25200930e-02 +1.02224953e-01 +2.82439031e-02 -7.96042234e-02 +1.74164176e-01 -8.98145884e-02 -2.15423778e-01 +5.94221354e-02 +5.83553426e-02 +6.39151707e-02 -1.10153481e-01 +1.72778860e-01 -5.47156706e-02 +2.41017696e-02 -4.44808640e-02 +8.86938423e-02 +1.39331222e-01 -1.38838172e-01 +3.60226408e-02 +5.68789281e-02 -4.40056697e-02 -1.85851097e-01 +3.64641496e-03 -1.52230799e-01 -1.56201050e-01 -9.80335474e-02 +7.55663291e-02 +1.12565279e-01 +6.70065433e-02 +1.46749541e-01 +8.06479007e-02 +1.52382731e-01 +1.52992144e-01 -5.08265756e-02 -4.88978587e-02 -4.42301854e-02 -6.17104657e-02 -1.33215055e-01 -8.45097974e-02 -6.56606928e-02 -1.55221552e-01 +4.49519902e-02 -1.53831661e-01 +9.36199352e-02 -1.68668449e-01 -1.25473412e-02 +1.11439414e-01 -7.63700008e-02 -1.20531775e-01 +2.23015845e-01 +1.05289124e-01 -1.79162309e-01 -4.77353036e-02 -2.48269606e-02 -1.87810212e-02 -1.53351314e-02 +1.18829608e-02 -2.76175197e-02 -1.10153526e-01 -2.31625829e-02 -5.68940528e-02 -1.10339709e-01 +6.22258335e-02 +5.34913093e-02 -6.68701902e-02 +1.11145630e-01 +1.20221227e-01 +1.04721308e-01 +1.27527639e-01 +7.62251541e-02 +5.54786390e-03 -1.04202621e-01 -6.64071292e-02 -5.81308939e-02 +1.88497193e-02 -9.94662419e-02 -1.55155063e-01 +7.08663464e-02 +7.88352564e-02 +6.02370352e-02 -9.55395624e-02 +8.48743878e-03 +1.82821155e-01 +2.35053986e-01 -1.09446160e-01 -8.22789520e-02 +2.20903512e-02 +1.48185164e-01 -9.83102098e-02 -5.38078621e-02 -1.66393742e-01 -6.78098155e-03 -1.03794254e-01 +1.15397237e-01 +8.76784697e-02 -8.06784481e-02 +9.98546854e-02 +1.25388309e-01 +9.58427563e-02 +1.25118136e-01 -3.31410393e-02 -1.46335810e-01 -1.40878409e-01 -7.67994672e-03 +1.24732129e-01 -1.14643432e-01 +2.90234759e-02 +4.71289605e-02 +3.73702273e-02 +3.25845205e-04 -8.10058638e-02 +6.24636784e-02 -4.55212817e-02 -1.31550699e-01 -7.11515844e-02 +1.29432246e-01 -5.59844114e-02 +1.30194172e-01 +5.96223958e-02 -1.05095819e-01 +6.56175613e-02 -2.97737736e-02 +6.90174326e-02 -2.68503483e-02 +6.46825507e-02 +1.17598481e-01 +3.06291208e-02 +3.74462977e-02 -6.64232597e-02 +1.23254031e-01 +8.69103801e-03 -1.62825227e-01 +5.36033772e-02 +7.68578202e-02 -5.64986095e-03 -1.91491656e-02 +2.34802905e-02 -5.31258509e-02 -1.88747823e-01 -3.70412394e-02 -1.08919665e-02 -9.63271707e-02 -2.03114133e-02 +1.46076372e-02 +6.09052330e-02 -9.70881060e-02 -6.98320195e-03 +5.89218922e-03 -5.83836287e-02 +9.48872790e-02 +1.20200641e-01 +2.25460491e-04 -1.00340374e-01 +7.03171501e-03 +2.60394122e-02 +7.59689882e-02 -3.28994393e-02 -4.10405453e-03 -4.43975106e-02 +6.14871876e-03 -9.71384495e-02 +2.80831829e-02 -1.86651915e-01 -1.43203378e-01 +1.11219175e-01 -8.15796200e-03 +4.31896597e-02 -2.46747974e-02 +5.69493920e-02 +2.11224742e-02 -4.01475616e-02 +5.74816801e-02 +3.10437717e-02 -9.30191725e-02 -7.07798526e-02 +1.06023801e-02 -2.34996062e-02 +5.05758561e-02 -2.76336260e-02 +1.01026647e-01 -2.02145651e-01 -2.38491297e-01 -8.33048373e-02 +1.19062357e-01 +4.67571318e-02 -4.40642843e-03 +1.43001109e-01 -2.63357218e-02 +6.76116049e-02 +1.15873888e-02 -6.60221800e-02 +1.33172393e-01 -1.82790622e-01 +1.65358782e-01 +6.21591881e-02 -2.22083088e-02 -4.51922007e-02 -8.92010108e-02 +1.44905970e-01 +1.00189067e-01 -1.63816765e-01 +1.86760090e-02 -5.96433692e-02 -8.87783617e-02 +7.53319710e-02 +5.01990132e-02 -6.64509237e-02 +4.29526307e-02 -7.60171376e-03 +1.06768042e-01 +3.63126174e-02 -4.33211364e-02 +7.32528120e-02 -7.39260837e-02 -4.81531695e-02 -5.56210242e-02 +1.63294282e-02 -1.80413574e-02 -6.80793077e-02 +1.26027912e-01 -6.01889892e-03 +1.47831277e-03 +1.35284096e-01 +1.77422047e-01 +1.91612486e-02 +8.25868398e-02 -1.82954059e-03 -5.75877689e-02 -6.32163808e-02 +6.04761802e-02 -3.59602366e-03 -9.35352128e-03 -7.32100382e-02 +4.63590138e-02 +1.01066031e-01 +3.92620973e-02 -1.76558197e-01 -2.64921784e-02 +6.38588890e-02 -7.45586082e-02 -1.19135678e-01 -1.17519319e-01 +1.60521474e-02 -1.10707760e-01 -1.36861026e-01 -4.14372198e-02 +8.48914981e-02 +1.58107132e-01 +1.02228466e-02 +4.78589386e-02 -7.89984316e-03 +1.03440300e-01 +2.03500222e-02 +1.40827015e-01 +3.75669971e-02 -3.72851416e-02 +4.49168719e-02 -2.19034702e-02 +7.43156746e-02 -3.53796221e-02 -1.47689283e-02 +1.68311566e-01 +2.86142761e-03 +6.41350523e-02 +1.01781122e-01 +1.53536081e-01 +7.26576149e-02 +7.57929462e-04 +1.06007643e-01 -5.25599206e-03 -2.43457444e-02 +9.58222139e-04 +4.37373705e-02 -1.18095279e-01 +4.33961488e-03 +1.22864574e-01 +2.79285684e-02 -1.20789967e-02 +6.58195317e-02 +3.87550816e-02 +7.72131188e-03 -1.21005714e-01 +1.39968902e-01 +1.75558947e-04 +1.25538096e-01 -8.91717300e-02 -1.47645995e-01 -3.33409496e-02 -3.35635617e-02 +8.91957432e-02 -9.66850966e-02 -1.10488087e-01 -8.74258131e-02 -8.05780105e-03 -7.27942809e-02 +1.13172241e-01 -7.47950152e-02 -7.73170069e-02 +1.28846988e-01 +1.29547134e-01 -8.50150511e-02 +8.42274204e-02 -4.82623354e-02 -5.86275496e-02 +3.90890650e-02 -2.43670959e-02 +1.38021797e-01 -1.32335648e-01 -5.32804318e-02 +4.24693786e-02 +2.61293817e-02 -5.84337227e-02 -4.28891256e-02 -6.67956145e-03 -1.91549379e-02 +3.46652716e-02 +1.20660916e-01 -7.11853877e-02 -5.80301834e-03 -1.76763341e-01 +1.21933907e-01 +1.98507622e-01 -2.69491337e-02 +2.25936566e-02 +9.26908553e-02 -1.31160110e-01 +1.72535870e-02 -7.18695074e-02 +8.29036012e-02 +9.24329273e-03 -1.75690591e-01 -1.21525586e-01 +5.28583191e-02 -1.43031955e-01 +1.23628922e-01 -1.02979027e-01 -2.17666626e-02 -8.82577326e-04 -3.81631553e-02 -1.04251705e-01 -1.11591645e-01 -3.23827788e-02 +1.50660425e-02 -4.64425236e-02 +8.79040062e-02 +1.03708617e-02 +1.00912586e-01 +2.06362475e-02 +6.52661696e-02 +3.66809331e-02 -9.44868661e-03 -7.23692402e-02 -5.38023226e-02 -4.40383442e-02 -8.50214437e-03 -8.46795142e-02 -3.38446125e-02 -1.07279666e-01 +3.46892364e-02 +7.61312470e-02 -7.83585012e-02 +7.14755058e-02 -5.06196097e-02 +6.22737184e-02 +4.68204841e-02 -1.39645740e-01 -1.40269414e-01 -1.54933959e-01 +9.58431885e-02 -2.96253860e-02 +8.34609717e-02 +3.12229991e-02 -1.77449845e-02 -1.36080414e-01 +1.48445770e-01 +2.75358092e-04 -3.12201213e-03 +1.01144463e-01 +9.43676904e-02 -1.41555637e-01 +1.58624109e-02 -8.08350965e-02 -1.44688338e-01 -1.32032916e-01 +1.00906909e-01 +1.01662301e-01 -8.49126056e-02 +3.31824645e-02 -1.08027890e-01 +9.92423818e-02 -1.33313656e-01 -8.67088139e-02 +1.89345136e-01 +1.11902438e-01 -2.23828256e-02 +4.84066121e-02 +1.18984088e-01 +1.24532454e-01 +8.23800415e-02 -4.66791131e-02 -1.57288522e-01 -9.01727900e-02 -9.04162750e-02 +8.84237140e-02 -3.54253897e-03 +5.34844175e-02 -1.32059619e-01 -8.11993331e-02 +7.34128505e-02 -2.58302212e-01 +1.26041576e-01 +1.26839414e-01 -1.98580436e-02 +5.62629849e-02 +4.48703989e-02 +4.91583794e-02 +5.17249294e-02 -7.18828663e-02 +1.82250559e-01 -1.39734462e-01 +1.82178542e-02 +9.91367623e-02 -1.01565674e-01 -6.07460097e-04 -1.90874219e-01 +2.39570178e-02 +6.52774051e-03 -1.14813171e-01 -4.75823171e-02 +1.43901231e-02 +1.06559597e-01 -1.34574085e-01 -3.30907628e-02 +9.78940204e-02 +1.86058044e-01 -9.60278511e-02 +4.88712862e-02 -3.19599137e-02 +1.61369368e-02 -9.20367762e-02 +3.49100605e-02 +2.57879645e-02 -1.41006291e-01 -1.10307829e-02 +4.62807296e-03 +9.44559500e-02 -3.72561067e-02 +1.14835694e-03 -1.22374639e-01 -1.10426292e-01 -1.26671791e-01 -8.72601494e-02 -1.87441688e-02 -5.67174777e-02 +1.01841331e-01 +6.42274618e-02 +8.50805715e-02 +2.06702091e-02 +2.31977347e-02 -1.17282026e-01 -1.31670460e-01 +1.36763811e-01 -7.08783641e-02 +1.18872955e-01 -1.79897656e-03 +1.11061335e-01 -1.57494172e-01 -1.80966035e-01 -9.86214131e-02 -4.91482988e-02 +3.78417522e-02 -1.66417316e-01 -6.88224435e-02 +1.44131273e-01 -6.53815493e-02 -3.24125728e-03 -9.35305189e-03 +8.45206231e-02 +6.57944679e-02 +8.18346888e-02 +4.27026451e-02 -3.20287906e-02 +1.45897031e-01 +2.46517770e-02 -5.60728535e-02 +7.51196593e-02 +1.74514540e-02 -1.66429773e-01 +1.14119157e-01 -2.49037631e-02 -2.27741115e-02 +1.15486674e-01 -7.46477470e-02 +1.49622932e-02 -6.78744167e-03 +1.54353874e-02 -4.38346937e-02 -5.56508861e-02 +6.85255155e-02 -1.33694798e-01 +1.69189367e-02 +5.68149984e-02 -1.50890559e-01 -9.04951058e-03 +1.48245886e-01 +9.08624940e-03 +9.07494649e-02 +4.68542501e-02 -6.96511790e-02 +9.05494317e-02 -4.71652299e-02 +2.59157307e-02 -8.73369575e-02 +1.04262523e-01 +6.25027269e-02 -1.17662363e-01 +8.83298665e-02 +9.65007246e-02 -1.14591651e-01 -6.33892491e-02 +2.72304658e-03 +1.17756687e-01 -3.35034579e-02 +6.22637309e-02 -1.72885917e-02 -4.04222272e-02 -1.10258870e-01 -5.99464625e-02 +1.36213988e-01 +1.30176082e-01 +4.27573137e-02 -8.52555130e-03 -6.17728010e-02 +1.53809665e-02 -1.47836491e-01 -2.67807115e-02 -2.05907561e-02 +8.18545148e-02 -1.19255725e-02 -3.70797166e-03 -8.11145306e-02 -7.07146600e-02 -1.77929252e-01 +1.93537861e-01 +1.13868386e-01 +7.26091191e-02 +5.44202961e-02 -5.71401566e-02 +1.14826605e-01 +4.77842316e-02 +5.40518314e-02 -1.69855297e-01 -4.27343845e-02 +6.46611303e-02 -8.04916918e-02 -2.84666456e-02 -1.17329702e-01 -7.13492781e-02 -1.50815889e-01 -4.21006195e-02 -1.99258402e-01 -1.15216814e-01 +1.49303854e-01 -1.60369962e-01 +2.01387361e-01 +3.76217030e-02 -1.03399165e-01 +4.86894771e-02 +2.71491725e-02 -5.30670471e-02 +1.51221648e-01 +4.38953340e-02 -1.34005323e-01 +1.12243727e-01 -8.63334909e-02 -2.15775650e-02 -1.86138973e-02 -2.56528519e-03 +1.18590526e-01 -2.56613009e-02 +3.86577323e-02 -1.20770320e-01 +4.34642807e-02 +5.11345221e-03 -5.22432441e-04 +1.70014072e-02 -4.05227393e-02 +5.00113368e-02 -8.65732208e-02 -1.18495986e-01 -3.73156974e-04 -4.66495901e-02 -8.64286348e-02 +1.31486371e-01 -4.19759843e-03 -1.91397056e-01 -1.13459103e-01 -1.22734904e-01 -1.25000894e-01 -6.10355102e-02 +1.92219727e-02 +4.20684777e-02 -8.32167789e-02 -1.30630136e-01 +1.43975943e-01 +6.37825131e-02 +1.82470679e-02 +6.12480640e-02 -3.57752219e-02 +1.30170271e-01 -5.58329001e-02 -1.54775009e-01 -4.32097167e-02 +1.04083018e-02 +1.37794927e-01 +5.90701401e-02 -3.88754494e-02 -1.52119517e-01 -1.69327874e-02 +8.33122209e-02 +1.44396842e-01 +1.10500097e-01 -7.11785704e-02 -2.02267263e-02 -9.39438678e-03 +1.00292653e-01 +6.01256266e-02 +5.71544096e-02 -5.89070506e-02 +5.82550988e-02 +7.62194991e-02 +1.03020044e-02 +1.30836079e-02 +3.20424396e-03 -1.31306604e-01 +1.98539376e-01 -9.21392217e-02 +2.30250344e-01 +7.33160973e-02 -4.78099985e-03 -1.09688789e-01 -4.72590216e-02 -1.11236885e-01 +1.77457541e-01 +9.93225947e-02 +2.29744762e-02 +1.44736961e-01 -1.25151187e-01 -1.04365721e-01 -2.04297498e-01 -4.82561104e-02 +1.01627275e-01 +5.50802723e-02 +8.35523084e-02 +6.28818050e-02 -3.69922727e-01 -5.13026603e-02 +1.63548857e-01 -1.17294177e-01 +3.73089537e-02 -6.26405478e-02 -1.38173267e-01 +1.18102729e-01 -6.43046722e-02 -1.14437856e-01 +5.95729351e-02 -2.06859618e-01 +7.27966204e-02 -1.87877998e-01 +2.73241401e-02 -2.04199571e-02 +1.31763607e-01 -1.16059393e-01 +1.00481503e-01 +1.05020866e-01 +1.46282101e-02 -1.79982893e-02 -8.95502418e-03 +1.87121794e-01 -3.48198675e-02 -9.19101983e-02 -6.93033189e-02 +1.02559738e-01 +6.87808022e-02 +1.19260244e-01 +4.02398892e-02 +1.03716098e-01 +4.47568446e-02 -1.45528480e-01 +5.36608212e-02 -8.69122893e-02 -1.39766455e-01 +2.28607148e-01 +5.05105406e-02 +8.61062929e-02 +7.76236579e-02 +7.83816352e-02 +2.89792474e-02 -9.22982991e-02 -2.25743111e-02 +3.35739851e-02 +1.17382156e-02 -3.27041522e-02 +3.14926729e-02 -3.73319425e-02 +5.77208884e-02 -4.16838415e-02 +7.05696717e-02 +1.78028084e-02 +2.84792874e-02 +4.54263873e-02 -5.76840565e-02 +1.03066824e-01 -1.30438611e-01 -7.07968995e-02 +9.63051096e-02 -1.34550735e-01 -3.30795944e-02 -3.57245840e-02 -8.44637901e-02 -3.65960598e-02 -1.10264443e-01 -4.54296991e-02 +1.07121691e-01 -4.88193445e-02 +7.43142888e-02 -8.70311856e-02 -1.02465019e-01 +2.59400848e-02 -1.96710840e-01 -7.72139654e-02 -6.07936494e-02 +5.20803668e-02 -8.49931017e-02 +2.90899798e-02 -2.51331576e-03 -8.24466273e-02 -2.83262110e-03 +2.73901951e-02 -4.20285948e-02 +1.22818142e-01 -3.80594172e-02 +1.34189934e-01 -8.67915824e-02 +6.72810301e-02 +1.00967482e-01 +1.11532561e-01 +3.71417142e-02 +8.28778744e-02 +8.00652653e-02 -7.54771978e-02 +1.12299323e-01 +2.53235083e-02 +4.22244929e-02 +4.27470803e-02 -1.25839308e-01 +1.06198393e-01 -6.05165586e-02 +1.38844416e-01 -9.00456607e-02 +1.04306646e-01 +4.39921692e-02 -1.06653057e-01 +8.35400894e-02 -7.41736963e-02 +3.41609642e-02 -1.83245080e-04 +7.19308928e-02 -1.28676444e-01 -8.11362639e-02 +9.43173468e-02 -1.47679746e-01 +5.13995141e-02 -3.95733081e-02 +1.59414932e-01 +2.35347703e-01 -2.15430707e-01 -3.84201370e-02 +1.08263664e-01 -7.41022676e-02 -1.13397747e-01 +6.48608357e-02 +1.33133352e-01 -7.92627111e-02 +3.57055329e-02 -4.80370671e-02 +2.71027684e-02 -1.02767952e-01 -4.77341451e-02 -4.39382531e-02 +1.13218538e-01 +2.95315348e-02 -1.09810971e-01 -4.26272750e-02 -1.46228686e-01 -4.31308225e-02 +1.23468623e-01 +1.17850922e-01 -4.99074534e-02 -1.65645063e-01 -3.65979783e-02 -6.08726069e-02 +1.12829180e-02 -8.50622207e-02 +2.54633911e-02 +8.27697739e-02 -8.20090547e-02 -2.97483895e-02 -7.61838406e-02 -1.05883822e-01 -1.59435555e-01 -1.02391683e-01 +1.29573509e-01 +9.54814404e-02 +6.37725443e-02 +8.04318339e-02 -5.58791347e-02 +3.68820154e-03 +7.67285675e-02 -1.71862081e-01 +3.66058461e-02 +4.83015180e-02 +5.44547476e-03 +1.40690535e-01 -3.48175578e-02 +2.20695008e-02 +1.18307069e-01 -1.06374629e-01 -1.68633625e-01 -3.54707874e-02 +1.60623297e-01 -1.34922490e-02 +1.32270560e-01 -2.78163683e-02 -2.54118703e-02 -9.53695476e-02 -5.44791063e-03 -8.77534226e-02 -7.08976239e-02 -6.24616817e-02 -1.64285168e-01 -6.24308176e-02 +4.02099360e-03 +1.37984544e-01 +8.09860528e-02 -4.44182605e-02 +8.77159983e-02 -7.16481358e-02 +1.97407514e-01 +3.80497202e-02 +1.72130406e-01 -8.08749273e-02 -3.58135104e-02 -5.83172031e-02 -1.97379272e-02 -1.26876950e-01 +1.49705455e-01 -1.79766200e-03 -1.05164655e-01 -1.18376076e-01 -4.90649156e-02 -1.32812962e-01 -1.03897318e-01 +3.37066241e-02 -1.42849743e-01 +1.04852319e-01 -1.14810169e-01 +5.91487661e-02 +1.04067482e-01 -1.10496975e-01 +3.84409055e-02 -1.34257093e-01 -4.63956110e-02 -2.30634198e-01 +2.68895943e-02 -9.90902036e-02 +1.53332315e-02 +2.73160581e-02 +1.17139421e-01 -1.55486494e-01 +6.50537610e-02 +3.19843628e-02 -6.76502213e-02 -6.56832606e-02 -7.99483731e-02 -4.50205877e-02 +8.60008299e-02 +4.29077372e-02 +3.51009443e-02 +9.97640640e-02 +5.28543182e-02 -3.74433063e-02 -1.04411077e-02 +1.23254687e-01 +1.60433963e-01 +2.03303341e-02 +4.88877222e-02 -4.79450151e-02 +1.15841165e-01 +1.01105534e-01 +1.30419672e-01 -1.30619153e-01 +2.38726094e-01 -5.22497557e-02 +4.55406234e-02 -1.06375672e-01 +7.97374770e-02 -2.29808107e-01 +1.50563359e-01 +9.31554288e-02 -1.18134111e-01 -6.54265955e-02 +1.10255413e-01 +6.75988558e-04 +5.38238585e-02 -1.21302553e-01 -1.51869014e-01 -9.54378694e-02 -6.06357120e-02 +1.47128597e-01 -1.25858728e-02 -4.58437428e-02 +3.45420949e-02 +1.33786410e-01 -1.97749287e-01 +9.30046570e-03 +7.06882998e-02 +2.78654620e-02 -1.28241256e-01 +1.44709304e-01 -6.38210624e-02 -4.77836803e-02 -8.58826488e-02 +3.64343114e-02 +6.84994832e-02 +1.36854485e-01 +1.34552464e-01 -1.45522967e-01 +1.35570541e-01 -1.33607849e-01 +7.92919751e-03 -4.90375310e-02 -1.09888971e-01 -3.51539068e-03 +7.45007694e-02 -3.01016704e-03 -5.83295524e-02 -7.86378980e-02 +8.23203251e-02 +2.14076281e-01 +1.44485027e-01 +6.96099028e-02 +1.40569851e-01 -1.02561526e-01 +4.42832448e-02 +9.41295922e-02 +5.77202961e-02 -6.03491366e-02 +2.34244056e-02 +8.59232992e-02 -1.25597581e-01 -6.61902800e-02 -8.14255923e-02 +1.52987748e-01 +1.00473650e-02 +6.30412390e-03 +8.88464898e-02 -1.12158559e-01 -5.19693531e-02 +3.03829592e-02 -1.22197047e-01 +1.85431503e-02 +3.15130465e-02 +9.88332480e-02 -9.12103206e-02 +8.16394165e-02 -6.34625703e-02 +7.34218806e-02 -6.03796728e-02 +2.45750044e-02 +5.91326356e-02 -6.85430467e-02 -1.99557021e-02 +1.17080159e-01 -2.73579713e-02 +1.18090563e-01 +1.14112809e-01 -5.26084006e-02 -6.14896826e-02 +1.38416931e-01 -1.75429806e-01 +2.82850377e-02 -3.44996452e-02 +3.04678418e-02 +1.08920552e-01 -1.81681305e-01 +4.32466902e-03 +1.33520693e-01 -4.02246863e-02 -1.44829020e-01 +6.86198547e-02 +9.91321076e-03 +1.13460004e-01 +1.41580611e-01 -2.35460401e-02 +4.13511284e-02 -1.50133058e-01 +6.29589111e-02 +3.89686786e-02 +7.20852688e-02 +7.61868730e-02 +1.64456870e-02 -1.46400183e-02 -1.16294865e-02 -8.46818648e-03 -1.11660650e-02 -3.56141739e-02 -1.05990693e-01 +1.17134653e-01 -2.04289425e-02 -1.78414807e-02 +4.96982895e-02 -1.87742542e-02 -6.90289512e-02 -7.95451328e-02 +2.31557768e-02 -5.06360047e-02 +1.57592595e-01 +4.99529354e-02 +4.60642800e-02 +7.73191527e-02 +4.67862971e-02 -1.22851610e-01 -1.03780523e-01 +1.72714666e-01 -8.36749598e-02 +1.72757179e-01 -5.77057432e-03 +5.03122434e-02 -1.10385485e-01 +3.14334151e-03 +4.49592024e-02 +1.01091959e-01 -4.01701406e-02 -1.70419782e-01 -1.60915107e-01 +2.20416754e-01 -8.21989700e-02 +3.62426080e-02 -1.28232777e-01 +5.94567582e-02 -5.06798849e-02 +1.11833878e-01 -1.25246346e-01 +1.18417256e-01 -1.53418690e-01 +1.21678837e-01 +4.04174440e-02 +1.27077267e-01 -3.10851689e-02 -1.69344157e-01 +1.15880810e-01 -6.48562536e-02 +8.49296376e-02 -4.22070846e-02 -5.03469594e-02 -3.94817814e-02 +8.98777880e-03 +5.30085601e-02 +9.86467376e-02 +9.43099055e-03 +1.29014343e-01 -4.68479171e-02 +1.55805707e-01 +1.17288232e-02 +1.43942386e-01 -1.38650879e-01 +2.91246995e-02 +6.60700863e-03 +7.85732567e-02 -3.83380353e-02 +2.31344718e-02 -2.39303019e-02 -8.45998302e-02 +1.12884894e-01 +9.21252891e-02 +4.20445837e-02 -4.73769046e-02 +1.97218984e-01 -2.04977289e-01 +4.71166819e-02 -7.00045303e-02 -1.61953449e-01 +2.11373139e-02 +6.15988560e-02 +1.15203433e-01 -4.91740592e-02 -1.65548176e-03 -8.17573145e-02 -4.71335575e-02 -2.52123573e-03 -7.99082667e-02 +3.63989845e-02 -1.34569034e-01 -7.36486390e-02 -1.37929395e-02 +4.34395075e-02 -4.39555012e-03 +3.96369435e-02 -3.50276604e-02 -7.54518509e-02 -8.47045407e-02 +7.11883456e-02 +1.19923808e-01 -2.05043014e-02 -1.70463379e-02 +1.52243450e-01 +8.12332258e-02 -1.45700082e-01 +6.36965083e-03 -8.50662589e-02 +6.25151733e-04 +4.65656966e-02 -1.56753324e-02 -7.06726462e-02 -1.12224311e-01 +1.58283576e-01 -9.18225572e-02 -2.00827494e-01 -1.91321313e-01 +1.04803711e-01 +1.26348967e-02 -7.54795820e-02 +1.10694930e-01 +4.60486002e-02 +5.86459190e-02 -7.08683729e-02 -1.44657299e-01 +3.12208124e-02 -3.37807685e-02 +4.53460775e-02 +1.67141199e-01 +3.08826976e-02 +3.60878818e-02 -2.11055741e-01 -8.66188109e-02 +5.67019470e-02 -9.31944977e-03 +1.22058757e-01 -4.58479226e-02 -2.17341036e-01 +6.51837736e-02 +1.00051895e-01 +6.84611574e-02 +9.00157318e-02 +2.61752168e-03 +3.83480303e-02 +5.10383770e-02 +1.19791962e-01 +7.94575810e-02 +7.30111673e-02 -8.54521841e-02 +1.25738442e-01 +1.72448859e-01 -9.05761495e-02 -2.77668685e-02 -9.20111835e-02 +2.06368446e-01 -7.44483843e-02 +9.91525352e-02 -1.42398089e-01 -6.82178065e-02 +2.00856611e-01 -7.85329714e-02 +8.77502039e-02 -1.60859391e-01 +3.83505411e-02 +3.22925486e-02 +8.52931812e-02 -1.06931597e-01 -7.62426108e-02 +1.03431493e-01 +7.54091218e-02 -2.05163658e-02 +7.82112330e-02 -8.70453268e-02 +3.13278623e-02 -2.27108505e-02 +1.47260398e-01 -1.88953001e-02 +2.15069368e-03 -9.12155509e-02 +1.17147498e-01 +1.16273038e-01 +1.88008755e-01 -1.66036543e-02 +5.87214790e-02 +7.64577389e-02 +1.33717015e-01 +1.15687363e-01 -5.53651378e-02 +1.19617052e-01 +1.43540815e-01 +2.43992992e-02 +7.18460828e-02 -1.72801360e-01 -7.48256668e-02 +1.64135262e-01 -1.04863286e-01 -7.88951069e-02 -1.12220012e-01 +1.32441565e-01 +9.47292596e-02 -1.16527677e-01 -5.33768125e-02 +2.19173804e-02 +3.21328815e-04 -1.46358728e-01 -9.12854448e-02 -2.09432378e-01 +1.02626584e-01 -9.20734331e-02 +1.08296178e-01 +3.87689471e-02 +4.46566530e-02 -7.12214336e-02 -4.08649780e-02 +8.04972053e-02 +4.41051722e-02 +9.87365283e-03 -5.38338609e-02 +1.25498295e-01 -7.30469748e-02 +6.53555021e-02 -2.38474235e-02 -1.81882977e-01 +9.90356226e-03 -1.54959396e-01 +1.30940855e-01 +9.91691798e-02 +4.78150547e-02 +6.33219704e-02 -2.84015499e-02 +6.63369447e-02 -3.14681232e-02 +9.85506549e-02 +8.80711079e-02 -6.40958548e-02 +1.31717265e-01 -1.55025572e-01 -1.51635543e-01 -4.16234732e-02 -1.02407865e-01 +8.41940045e-02 +2.05239043e-01 -5.05372211e-02 +6.38023689e-02 -2.91864276e-02 -5.03990054e-02 +8.75734463e-02 +3.43160182e-02 -5.37389852e-02 -3.57262902e-02 -2.95145288e-02 -5.88824078e-02 +3.20549943e-02 +9.20573622e-02 -1.16555974e-01 +5.38537279e-03 +2.82944273e-02 -3.75450216e-02 -1.94924418e-03 -8.70416239e-02 +1.63952753e-01 -1.80536713e-02 -1.23610228e-01 -1.41467340e-02 -1.10822618e-01 +1.66133617e-03 -5.12143262e-02 +3.40911858e-02 +8.49308595e-02 +8.65312219e-02 +1.11628607e-01 -1.22136241e-02 -3.41755003e-02 -8.03548098e-02 -1.63274687e-02 -3.47286649e-02 +1.76994979e-01 +1.02561275e-02 -1.13653108e-01 +4.03389968e-02 -2.26506274e-02 -8.01884476e-03 +7.25505278e-02 -1.98812142e-01 -9.63645130e-02 -7.79864797e-03 +1.09052517e-01 +6.97667599e-02 -8.40686783e-02 -2.01504197e-04 -1.39359355e-01 -1.11723967e-01 +1.03288844e-01 -2.11838372e-02 +1.28876314e-01 -1.06686078e-01 +5.22832163e-02 -1.09237835e-01 -1.64299761e-03 -4.24706154e-02 +3.23273391e-02 +3.14320298e-03 +1.22177429e-01 +8.51066690e-03 -7.53036067e-02 +9.50097367e-02 +5.61576299e-02 +1.70833413e-02 -4.12249714e-02 +1.35987312e-01 +1.66254163e-01 +2.78673805e-02 -1.59689859e-01 -7.29129687e-02 +9.80871394e-02 -2.96116471e-02 +2.45880485e-01 -8.08961317e-02 -7.95237068e-03 -8.36261436e-02 +1.62624240e-01 -1.85859967e-02 -8.64458457e-02 +1.14427701e-01 +1.42640935e-03 +1.02398001e-01 +1.51322693e-01 +1.66201293e-02 -5.66878654e-02 -6.89304024e-02 +1.92081705e-02 +1.30545869e-01 -1.54095933e-01 +9.20400769e-02 +5.10911942e-02 -1.51989922e-01 +1.47825154e-02 -1.07548952e-01 -2.03880891e-02 -9.45688263e-02 +9.88039970e-02 +1.54438198e-01 +4.32605892e-02 +3.06622777e-03 -1.67905927e-01 -1.28961746e-02 -3.74457873e-02 -5.73431030e-02 +1.77884605e-02 +1.33048460e-01 -1.01760320e-01 +1.00764528e-01 +7.82986283e-02 -3.96966077e-02 -1.34659661e-02 -4.28157486e-02 -1.20999329e-01 -2.89867148e-02 +1.73286155e-01 -8.83809254e-02 +1.09729439e-01 +2.78650820e-02 +1.08438797e-01 +1.18295625e-01 -3.86923961e-02 -5.99039458e-02 +1.75646618e-01 -5.26360460e-02 -1.28498580e-02 -3.30403000e-02 -1.18487298e-01 -2.51804162e-02 -5.38774058e-02 +2.33324822e-02 +5.18918410e-02 +1.17234821e-02 +1.16429538e-01 +1.29111096e-01 -1.84867214e-02 -8.28682706e-02 +2.78270599e-02 +1.23513059e-03 +1.54303044e-01 -1.40494660e-01 -4.86977622e-02 -1.38196051e-01 +1.14942402e-01 -1.25092909e-01 +1.52940586e-01 +6.15525432e-02 -5.20076826e-02 +1.12875514e-01 -7.82057364e-03 +1.06794022e-01 +3.02452706e-02 -1.16259502e-02 -1.09786959e-02 -1.78724155e-02 -1.16312876e-01 +1.14994198e-01 -1.14737146e-01 +1.76189274e-01 -4.39641625e-02 +1.35973543e-01 -1.04657657e-01 -9.42777470e-02 -3.86027135e-02 +3.44106257e-02 -8.22295398e-02 -2.27640625e-02 +2.13131770e-01 +2.34989449e-02 +6.83493242e-02 +6.99324012e-02 +3.97940241e-02 -9.57025662e-02 -5.67707159e-02 -9.72072929e-02 -1.00026049e-01 -1.63123995e-01 +6.68178424e-02 -6.95842179e-03 +3.51270027e-02 +6.97879959e-03 +9.34237689e-02 +5.01299389e-02 +6.99594915e-02 -1.19182959e-01 +6.43583909e-02 -1.89695153e-02 -1.45240072e-02 +1.92452334e-02 +2.02891827e-01 +1.50499031e-01 +4.35525668e-04 -2.60414481e-02 +1.18040182e-01 -1.10118091e-02 +8.59296545e-02 -1.51111767e-01 +3.07789929e-02 +7.74099082e-02 +9.49145183e-02 -9.66553092e-02 +1.78809792e-01 -1.25440836e-01 -1.29970610e-02 -1.02511756e-01 +1.78525895e-01 +9.26528126e-02 +4.21167910e-02 -1.21271551e-01 +3.00811807e-05 -6.04096167e-02 +3.62981968e-02 -1.19224988e-01 -5.71836941e-02 -1.74050629e-02 -9.63427871e-03 +6.48460090e-02 -1.28983349e-01 +8.66260156e-02 +5.00982776e-02 -1.84298481e-03 +7.87032917e-02 +1.39965229e-02 -4.30746041e-02 -1.90085154e-02 -7.22694173e-02 -9.24246311e-02 -1.37293056e-01 -7.07927719e-02 -4.33370881e-02 -2.13216878e-02 -5.11960499e-02 -7.44960308e-02 +1.32808387e-01 +2.55418569e-02 +5.55162951e-02 +1.49620876e-01 -3.76231149e-02 +1.62225626e-02 -7.75232092e-02 +4.90578935e-02 -3.95992212e-02 -3.19055878e-02 +1.94032182e-04 +8.74376949e-03 -1.12151213e-01 +3.56833786e-02 -5.17815165e-03 +7.36211762e-02 -1.32234856e-01 +1.87374540e-02 -2.13427916e-02 +1.72700137e-02 -7.77422683e-03 +1.00198872e-01 +1.96737796e-02 +1.12566024e-01 +8.45890343e-02 -2.07395144e-02 +8.61705020e-02 +3.74703594e-02 -6.14531860e-02 +1.93841886e-02 +4.80044857e-02 -1.51442327e-02 +1.06996715e-01 -1.68695506e-02 -1.54835090e-01 -1.25959709e-01 +1.58669040e-01 -1.02961048e-01 -5.97421490e-02 +2.33089998e-02 +6.20053634e-02 +1.52313128e-01 -1.08811311e-01 +2.66483482e-02 -1.43048599e-01 +5.68817705e-02 -1.61707342e-01 +1.38108945e-02 -1.10800490e-01 -4.47804555e-02 -1.28010362e-01 -4.68101762e-02 -7.20766261e-02 +1.77041560e-01 -6.33677766e-02 +7.34992996e-02 -4.46460582e-02 +4.40652706e-02 -1.09654531e-01 +4.44582887e-02 +6.57684505e-02 +1.12950087e-01 -1.44898236e-01 -4.97974865e-02 +1.11646540e-01 -6.54235929e-02 -1.74408611e-02 -1.67028353e-01 -1.05804056e-01 +9.41864699e-02 -1.66823402e-01 -5.47956079e-02 +3.77637744e-02 -1.44488394e-01 +9.84723344e-02 +1.20903745e-01 -3.18781808e-02 -8.74783695e-02 -1.06802672e-01 -1.17812127e-01 +5.17799407e-02 +1.55154064e-01 -1.15922354e-01 -1.51008680e-01 -9.63970944e-02 -4.38697590e-03 +3.32891243e-03 -1.08030379e-01 -3.96744907e-02 -7.55248219e-02 +1.87927425e-01 +1.02959096e-01 +5.05472869e-02 +7.18214288e-02 +1.15789793e-01 -3.26899923e-02 +1.66897535e-01 +9.62299015e-03 -2.00672969e-02 -9.27141979e-02 -8.23738892e-03 -2.78416947e-02 +1.62438765e-01 -1.31838039e-01 +1.34684620e-02 +1.60306618e-02 -1.33726880e-01 -4.75900732e-02 +3.00441659e-03 +8.47903863e-02 +7.82265961e-02 -1.27412146e-02 +1.00314461e-01 -6.41386583e-02 -5.37590720e-02 +4.89315996e-03 +1.01166137e-01 +4.46190350e-02 -4.92126569e-02 +6.11867644e-02 +1.62598386e-01 -1.77771732e-01 +2.01119855e-01 +1.34205297e-01 -1.94180265e-01 -1.38540119e-02 -4.16050553e-02 +8.87412429e-02 -8.67098346e-02 +1.22910686e-01 -5.30997440e-02 -8.70070327e-03 -9.19978842e-02 -6.80349022e-02 -1.98459327e-02 +3.88874523e-02 -9.98815671e-02 -1.67247340e-01 -4.09386382e-02 -5.80530465e-02 +8.61043483e-03 +1.25935480e-01 +1.70738086e-01 +6.04539029e-02 +1.82579886e-02 -6.21169098e-02 -6.34157732e-02 -1.87148266e-02 +1.33767813e-01 +8.81361961e-02 +1.19757473e-01 -5.53931948e-03 -7.50503317e-02 -1.01890430e-01 -5.71963266e-02 +2.33636051e-02 +9.35993567e-02 +1.18250586e-01 -7.01754987e-02 +1.44479260e-01 +1.10240214e-01 +2.17162110e-02 -2.81374194e-02 -1.08301573e-01 +1.01000093e-01 +8.17614198e-02 -2.14983866e-01 -1.73203379e-01 -9.52522755e-02 -1.22191325e-01 +3.59016061e-02 -4.35613021e-02 -4.20882702e-02 -8.61895233e-02 +9.13646305e-04 -2.22138595e-02 -1.20927570e-02 +1.05107576e-01 +1.53447874e-02 +8.19513202e-02 -3.95435467e-02 -8.78203288e-02 +3.82568687e-02 +1.43566638e-01 +1.19903676e-01 +9.85263810e-02 +7.19251335e-02 -1.01162404e-01 -7.19584003e-02 +8.02783370e-02 +7.56765306e-02 -6.42698631e-02 -3.18210088e-02 +1.21236697e-01 +1.94705538e-02 +1.04088016e-01 +1.88287064e-01 -1.30283579e-01 -4.59178239e-02 +1.84463546e-01 +1.30286485e-01 -1.21271022e-01 +1.50569811e-01 -1.31889611e-01 +1.15958273e-01 -1.26757428e-01 -1.81239136e-02 -7.22118989e-02 +1.72285587e-01 -1.72458077e-03 -9.70530584e-02 +1.03395671e-01 -1.14250943e-01 -3.66203189e-02 -1.63338795e-01 +1.75359193e-02 -1.16082609e-01 +1.31932959e-01 +4.92061907e-03 +4.97673601e-02 +3.77488919e-02 +5.55361286e-02 +1.16767094e-01 -7.81052783e-02 -7.74848387e-02 +1.07200578e-01 +2.00025126e-01 -5.58654442e-02 -1.51891142e-01 -9.53859165e-02 +2.91266944e-02 -6.29837289e-02 -4.67385538e-03 -5.65869212e-02 +8.93865898e-02 +2.87395548e-02 -7.50107467e-02 +9.92372707e-02 +4.77349162e-02 -8.09467137e-02 +6.53494522e-02 -4.97574955e-02 -6.64768443e-02 -1.55497476e-01 -1.46774445e-02 -3.81595865e-02 -3.81452288e-03 +9.68029350e-02 -1.02917597e-01 -6.36598170e-02 -2.84935371e-03 +1.29174292e-01 +1.08819462e-01 +6.74714372e-02 +4.96762805e-02 -1.19717956e-01 +2.44769882e-02 -1.88922152e-01 +1.63910091e-01 -1.21058337e-01 -9.56974328e-02 +9.32071060e-02 +2.99112238e-02 -1.36330113e-01 +5.54775521e-02 +6.65736645e-02 +4.20921743e-02 +7.70413503e-02 +5.90262488e-02 -3.36979814e-02 +4.06232923e-02 -1.18483849e-01 -3.36047672e-02 -1.55754894e-01 -1.84145793e-01 -1.06670901e-01 -1.30459800e-01 -3.22303809e-02 +4.77467515e-02 +6.52322173e-02 +5.79448268e-02 +6.95503876e-02 +1.05665453e-01 -1.37993127e-01 +1.64885391e-02 +1.37368292e-01 -1.06512472e-01 -7.73467422e-02 +9.08978935e-03 +4.58626077e-03 +1.33636585e-02 -8.40934813e-02 +1.14013486e-01 +6.17359541e-02 -1.13653950e-01 -1.91773340e-01 -6.58610538e-02 -4.43544015e-02 -1.18312808e-02 +8.71529952e-02 +4.49125841e-02 -1.01610266e-01 +8.63040537e-02 -5.19536249e-02 +7.73503706e-02 -8.18782374e-02 +1.09339304e-01 -5.82825718e-03 -1.68054298e-01 +6.63010105e-02 -9.54512730e-02 +1.20365769e-01 -6.53830590e-03 +8.82725120e-02 -2.80318577e-02 -1.08901791e-01 +7.32974187e-02 -1.32537484e-01 -1.08234346e-01 +7.74231106e-02 +2.72685345e-02 -1.18035287e-01 -1.11070298e-01 -6.79058656e-02 +9.02734697e-02 +8.32152590e-02 +1.23232476e-01 +1.02604188e-01 +1.21232182e-01 +5.35127409e-02 +1.62578017e-01 -3.45282108e-02 -9.24723297e-02 -1.25523448e-01 +1.48239620e-02 -1.48083776e-01 -9.90025178e-02 +1.28789723e-01 -5.29950559e-02 -6.84406459e-02 -1.37725472e-01 +9.64089185e-02 +1.45236805e-01 -6.62253276e-02 +8.69752541e-02 -1.10842220e-01 -5.17941155e-02 -5.10010608e-02 +1.16823755e-01 -1.00520268e-01 +4.06037383e-02 -3.32823209e-02 -2.95808371e-02 -1.86431035e-01 -9.98403430e-02 -5.15549146e-02 -1.73344593e-02 -6.26743659e-02 +4.64234874e-02 +1.00725673e-01 -7.36458227e-02 -3.27893831e-02 +6.98847398e-02 -8.32303017e-02 -7.95837566e-02 -1.18614107e-01 -2.75201164e-02 -6.72903890e-03 +5.74456826e-02 +1.13856412e-01 -1.31617472e-01 -3.04070078e-02 +9.82556641e-02 +2.13971600e-01 -4.45835991e-03 -6.75239712e-02 +4.24289927e-02 +1.04814209e-01 -3.43214460e-02 -8.39975923e-02 +1.00403011e-01 -6.70418516e-02 -8.45753103e-02 +7.79087618e-02 -1.15680419e-01 -6.94791526e-02 +9.74113941e-02 +8.46967399e-02 -7.85834640e-02 -1.83036074e-01 +1.15924172e-01 +2.38115285e-02 +2.41137575e-02 -9.09989774e-02 -1.02830596e-01 +2.10644938e-02 +1.44051090e-01 +7.47252256e-02 -1.28414199e-01 +2.06769910e-02 +4.60314602e-02 +1.63565010e-01 -1.06101997e-01 -3.78756523e-02 +9.71884876e-02 -2.89761834e-03 -4.37292717e-02 +6.37985319e-02 -7.56592378e-02 -7.77881891e-02 +3.38753313e-02 +8.16429555e-02 -1.53863179e-02 +6.35399222e-02 -1.15319025e-02 -7.31762685e-03 +3.58945224e-03 -1.07261688e-01 -8.90528932e-02 +2.70289220e-02 -2.02173024e-01 -8.69304463e-02 -7.59038627e-02 -1.50737852e-01 +9.47693512e-02 -5.02533726e-02 -5.66684455e-02 +1.54882014e-01 -1.80721045e-01 +1.74056459e-02 +1.18913308e-01 -3.24423313e-02 -7.92539567e-02 -1.45571411e-01 -1.17687128e-01 +6.15938306e-02 +9.71884131e-02 -1.81167647e-01 +1.34705782e-01 -2.31286138e-02 +1.60408154e-01 +1.38501143e-02 +8.16542655e-02 -1.44538432e-01 -8.13913047e-02 -5.51559180e-02 +1.60676911e-01 -1.85890850e-02 +4.91766557e-02 +9.94753987e-02 +2.57444568e-03 -8.01947638e-02 +1.57704011e-01 +2.65772305e-02 +9.28812698e-02 -1.20605186e-01 -4.45329808e-02 +1.15636349e-01 +9.26804319e-02 -1.26567651e-02 +6.31513223e-02 +6.99737594e-02 +1.63762257e-01 -7.77928233e-02 -9.59163606e-02 -1.55850157e-01 +6.05805889e-02 +1.81426723e-02 -1.22859120e-01 -8.41836482e-02 -1.89609170e-01 -8.43320116e-02 -6.68064952e-02 -8.43173414e-02 -2.69193090e-02 -6.99285120e-02 +1.04465537e-01 +1.23653606e-01 -1.62549511e-01 -3.89269292e-02 +3.93791981e-02 -6.89844936e-02 +6.34193122e-02 +1.25611126e-01 -6.27055392e-02 +1.02320008e-01 -1.06999248e-01 -1.07909635e-01 -2.22786143e-02 +2.33405083e-01 +1.26048476e-01 -5.78421801e-02 +6.61262274e-02 -4.64944281e-02 -7.14410320e-02 +5.93723729e-02 +1.95459500e-02 -1.35213390e-01 +1.46882519e-01 +5.49508147e-02 -1.06873242e-02 -6.61904514e-02 +8.92325565e-02 -2.09988113e-02 -1.00272559e-01 -5.55585399e-02 -1.53900638e-01 +2.65589394e-02 -9.72154140e-02 -9.86364037e-02 +8.17874968e-02 -3.46528143e-02 +7.81969726e-03 +1.52249873e-01 +1.51446208e-01 +1.14580862e-01 -3.71766719e-03 +9.91168991e-02 -1.51022568e-01 +6.30263761e-02 -9.97492224e-02 -9.37144458e-02 +1.87400326e-01 +6.42142743e-02 +3.48478593e-02 -5.36055565e-02 +1.19999059e-01 +1.51664596e-02 +3.98275862e-03 -1.63549796e-01 +5.16704582e-02 +6.42219856e-02 -3.67344469e-02 +6.38366491e-02 +1.81869902e-02 -1.51580395e-02 +1.44865336e-02 -1.33284822e-01 -8.51932317e-02 +8.55792835e-02 -9.06646103e-02 +1.40493274e-01 -3.74759175e-02 +8.65458418e-03 +3.79883908e-02 +9.27772373e-02 +1.11615866e-01 +3.45641598e-02 +1.29345328e-01 -5.16935885e-02 +6.21679053e-02 -9.22760516e-02 +4.65429127e-02 +1.21115141e-01 +3.16372253e-02 +1.05382621e-01 -1.11979790e-01 -1.62395284e-01 -1.08619496e-01 +3.15068103e-03 +2.31085215e-02 -7.14546815e-02 +6.52608871e-02 +1.00921303e-01 -8.43363330e-02 +1.18120119e-01 -1.64059564e-01 +4.44729850e-02 -6.82033449e-02 -3.52504924e-02 -6.91750720e-02 +8.41547153e-04 -2.48103347e-02 -1.67545229e-02 -5.27686402e-02 +4.68636118e-02 -2.57585701e-02 +7.46443942e-02 +4.10167277e-02 -4.77602631e-02 +3.91182229e-02 +1.27505019e-01 +1.43600345e-01 -1.90674269e-03 +1.58413842e-01 +6.37998432e-02 +1.04384258e-01 +5.98243251e-02 +5.25342226e-02 -8.11816081e-02 +1.63089931e-01 -7.67962961e-03 +9.43877548e-02 -6.83868304e-02 -9.22863036e-02 -2.87006255e-02 -5.15030101e-02 +1.63487289e-02 -1.03134066e-02 -1.17883775e-02 +1.48874670e-01 -1.10410653e-01 -6.81357831e-02 +1.53788915e-02 -8.85393769e-02 +4.04527187e-02 -4.11123149e-02 +9.14963987e-03 -5.37439361e-02 +2.69647390e-02 +1.39300730e-02 +3.79012898e-02 -9.39908028e-02 -1.03764519e-01 -2.34873639e-03 -6.33449480e-02 -8.35864842e-02 -1.32555649e-01 +7.64380246e-02 -5.11814617e-02 +6.23678900e-02 +5.84279299e-02 -1.53824657e-01 +2.04247743e-01 -1.21800015e-02 -2.45371852e-02 +3.96351330e-02 -7.84224086e-03 -2.09090009e-01 +6.71282187e-02 +7.97624215e-02 -4.24486287e-02 +1.40286520e-01 +1.59221619e-01 +8.51869956e-02 +7.15207756e-02 +9.69448835e-02 +5.09240143e-02 -7.20661134e-02 -1.34844363e-01 -1.33660883e-01 +4.65401635e-02 -9.50350612e-02 +6.74612299e-02 +9.28034708e-02 +1.17217064e-01 -6.28024414e-02 -5.91294356e-02 +8.92342553e-02 -2.42397487e-02 -8.10261630e-03 +1.47026196e-01 +1.39524072e-01 +1.14442796e-01 -8.53104368e-02 +7.13637769e-02 -2.07887795e-02 -9.90712419e-02 +1.35789827e-01 +8.07011425e-02 -1.11695625e-01 +3.50914188e-02 -6.31826743e-02 +4.18834388e-02 +9.78235081e-02 +3.26945409e-02 -4.02490534e-02 -1.05758070e-03 -7.91737717e-03 +3.17422524e-02 -8.25999454e-02 -1.77331734e-02 -1.69541344e-01 +6.21146522e-02 +4.38481756e-02 +8.45764726e-02 -3.29995826e-02 +7.27325678e-02 -1.43761396e-01 +2.62249494e-03 -1.79876029e-01 +7.27221072e-02 -6.20040521e-02 +9.79233459e-02 -1.13751143e-01 -1.13329500e-01 +1.85299754e-01 -3.12110092e-02 +7.51361996e-02 +1.41829133e-01 +1.07826635e-01 +1.73900127e-02 -4.64364067e-02 -6.88374788e-03 -4.90350164e-02 -9.19953510e-02 +8.24858770e-02 -9.02940780e-02 -1.00473920e-02 +5.41119613e-02 -6.81999698e-02 -3.00866812e-02 +1.68208122e-01 +7.24097043e-02 +6.92163641e-03 -4.24356610e-02 +8.77535045e-02 +1.25598013e-01 +6.87034652e-02 +1.40604496e-01 -7.68295601e-02 -2.57653352e-02 +1.08296379e-01 +1.16120964e-01 +9.52752084e-02 +9.89854857e-02 +1.43937662e-01 +6.12254851e-02 +1.93384200e-01 +5.22097014e-02 -9.27884951e-02 -8.54662359e-02 +1.59342065e-02 -3.81916128e-02 +7.31970370e-02 -1.23735718e-01 -2.59770185e-01 +1.42781228e-01 +1.06265536e-02 +3.67071666e-02 -7.17594940e-03 +4.56825420e-02 +6.12721555e-02 +7.18955547e-02 -4.01279181e-02 -1.22290321e-01 -6.39021322e-02 +6.26411811e-02 -8.28802660e-02 +4.06416841e-02 +2.74271518e-02 -3.27741802e-02 +1.46638574e-02 +9.53092240e-03 +2.35725772e-02 +1.14791013e-01 +1.82085663e-01 -5.32041155e-02 -9.25721899e-02 +1.38983831e-01 +1.18854612e-01 +4.11895700e-02 -1.92147791e-01 -9.40527320e-02 +6.83326600e-03 +4.34186533e-02 +2.48689298e-02 -3.12908590e-02 -1.56639680e-01 -2.52315179e-02 -1.32856639e-02 -2.88861841e-02 -1.33077607e-01 +7.49838576e-02 +6.52999207e-02 -1.13703251e-01 +6.43986836e-02 +1.57290474e-01 +6.72017485e-02 -2.46572979e-02 +1.11311480e-01 -1.58311114e-01 +8.22286773e-03 -6.66930676e-02 +1.34242341e-01 -1.04088433e-01 +9.87257063e-02 -3.67700271e-02 -5.48801161e-02 +1.44936591e-01 +1.57463789e-01 -3.29883918e-02 +2.10077345e-01 +1.49177477e-01 +1.18062496e-01 +7.44130462e-02 +4.35763858e-02 +4.69860248e-02 +4.96150106e-02 +1.52078450e-01 -1.64725110e-01 -1.04384748e-02 +2.70648617e-02 -9.58854184e-02 -1.04929149e-01 +9.31323469e-02 -8.47598091e-02 -4.26219441e-02 -1.58657074e-01 +1.69576243e-01 -1.03652254e-01 -1.47609398e-01 -1.69765666e-01 +1.53696358e-01 -8.66818149e-03 -7.76974708e-02 +1.84979066e-01 -5.36644049e-02 +9.30756554e-02 +3.04913018e-02 +2.98744254e-02 +1.63061395e-02 +7.08876103e-02 +4.45654914e-02 +3.81341297e-03 +9.78774428e-02 -1.36448532e-01 -9.77968574e-02 +3.65920253e-02 +1.21100508e-01 -1.27715304e-01 -2.06448007e-02 -5.12865111e-02 +8.86859372e-03 -3.78736295e-02 -1.22782163e-01 +1.36431575e-01 -4.51848879e-02 +5.79601601e-02 -8.77590552e-02 +1.13377400e-01 +5.84842497e-03 -1.39856160e-01 +7.72672221e-02 +2.65248213e-02 -2.96729375e-02 -4.18955758e-02 +7.92339593e-02 +1.00794561e-01 -6.92783073e-02 +1.18159736e-02 +1.04022279e-01 -1.97877467e-01 +7.50508308e-02 +3.07129771e-02 -1.65918842e-01 +2.06126407e-01 +3.56402323e-02 +4.75264005e-02 -8.57831445e-03 +2.52371281e-02 +6.74760863e-02 +4.19928357e-02 -3.05481330e-02 +1.80327501e-02 -1.08743757e-01 -9.59815457e-02 +2.91898865e-02 -9.65451002e-02 -7.91278295e-03 -6.54679164e-02 +1.43353760e-01 +1.29252017e-01 +3.38488258e-02 +1.51107848e-01 -3.21241505e-02 -6.21485375e-02 +9.62332785e-02 -8.68469253e-02 -9.36346012e-04 -9.26563237e-03 -1.09280974e-01 -1.03313275e-01 -5.32904677e-02 -9.14301574e-02 -4.83518727e-02 +1.37815014e-01 -3.14525776e-02 -1.04398601e-01 -6.54893368e-02 -6.67675119e-03 +7.39755258e-02 +7.88210034e-02 -1.73755735e-01 -1.08544379e-02 -8.72275829e-02 +1.23911202e-01 -1.14610411e-01 -5.97485118e-02 -1.51674539e-01 -5.07375551e-03 -2.94212829e-02 +8.92222859e-03 -9.89088714e-02 -3.31584662e-02 -2.81602889e-03 +6.07354343e-02 +1.21749707e-01 -5.96721582e-02 -1.02520245e-03 -9.69829690e-03 +1.86520368e-01 -1.55568957e-01 +8.32399502e-02 +8.70497897e-02 +1.24756239e-01 +1.54601082e-01 -2.61507672e-03 +2.42965147e-02 -2.23801304e-02 +9.95167866e-02 +5.82002141e-02 -1.14509106e-01 +1.08482251e-02 +1.05111957e-01 +1.08916998e-01 -7.21455086e-03 -1.76098030e-02 +2.64974348e-02 +9.92001407e-03 +1.03919946e-01 -2.28834283e-02 +1.63240340e-02 -1.27873257e-01 -9.87743735e-02 +1.20979734e-01 +5.66274337e-02 +1.16394833e-01 -1.54578954e-01 -5.75061105e-02 +1.39188766e-01 +1.53274238e-01 -9.36667770e-02 +1.11984864e-01 -1.00236721e-01 -5.60350902e-02 +7.38451257e-02 +1.34863123e-01 +4.76224311e-02 +9.71935689e-02 +5.91825582e-02 -5.09788096e-02 -1.20903905e-02 -1.98526070e-01 +4.08219211e-02 -7.95259625e-02 -8.53562914e-03 +8.24747235e-03 +1.16649859e-01 -8.46618339e-02 +1.01250015e-01 -1.48561165e-01 +5.73961139e-02 -1.70458220e-02 +8.80464446e-03 -8.41762647e-02 -1.37776554e-01 -7.43674189e-02 -7.57199451e-02 -1.53989479e-01 +4.07624319e-02 +6.78710267e-02 +1.14900388e-01 +5.49279228e-02 -5.26236296e-02 -8.09718482e-03 -1.17324680e-01 +6.20576851e-02 -4.17190380e-02 -9.93882343e-02 +8.64977613e-02 -9.72993821e-02 +1.11101575e-01 +1.14836968e-01 +1.18158445e-01 +1.00637078e-01 +1.14276437e-02 -7.95911103e-02 +7.70797534e-03 +1.26771078e-01 +6.68917149e-02 -1.22708134e-01 -5.11328727e-02 -1.63331643e-01 -9.61171463e-02 +1.33365542e-01 +5.40733188e-02 +1.51375890e-01 +1.05609335e-01 +1.08214341e-01 -4.36936915e-02 -6.93889558e-02 -7.64550045e-02 -5.79748787e-02 +3.68987094e-04 +1.07783377e-01 +1.71949789e-01 +1.27822205e-01 +2.60833688e-02 -4.66792136e-02 +7.14933798e-02 +2.61857789e-02 -1.12776510e-01 +1.30552456e-01 +4.34835441e-02 -1.38990777e-02 -1.14055071e-02 +6.37889132e-02 -4.78165224e-02 -5.81578948e-02 -1.40803441e-01 +4.27887514e-02 -1.18187048e-01 +6.18264675e-02 +1.16076723e-01 -1.06728179e-02 +8.81822705e-02 +9.58297849e-02 -5.44879213e-02 +1.14070274e-01 +1.85100883e-02 +5.23839258e-02 +2.60242037e-02 +2.58595962e-02 +1.15192212e-01 -4.94837463e-02 -1.79831728e-01 -1.95298404e-01 +1.18859068e-01 +1.60717309e-01 -4.67033982e-02 -7.56387636e-02 +1.37550190e-01 -7.72576928e-02 -3.02453544e-02 -2.00346820e-02 +6.15270734e-02 -1.87955005e-03 +3.29956636e-02 +4.82654050e-02 -1.18309282e-01 -5.41947596e-02 -5.56974187e-02 +1.07170455e-01 +4.32028919e-02 +1.20881936e-02 -1.63269058e-01 +2.86682509e-02 -8.80499035e-02 +2.72663403e-02 +4.75275256e-02 +1.39760956e-01 +7.43438154e-02 -7.92122483e-02 -2.16894373e-02 +1.20131366e-01 +8.07486400e-02 +3.07131056e-02 -9.15398821e-03 -7.88583383e-02 +1.95756536e-02 +2.81717740e-02 -1.49502084e-01 +1.66541278e-01 -9.24033299e-03 -5.62105961e-02 -4.31958511e-02 -1.30218640e-01 -8.09159130e-02 -2.12986059e-02 +1.72092587e-01 -6.74328879e-02 -1.75945535e-02 -1.00881882e-01 -3.11080068e-01 -1.39830872e-01 +1.39964483e-04 -6.18738644e-02 -6.95995465e-02 -1.14273094e-01 +2.53223497e-02 +1.72419637e-01 -5.04762158e-02 +1.22902356e-01 -6.34456426e-02 -5.90065904e-02 -1.09081641e-02 +8.52157325e-02 +2.33458299e-02 -8.33339021e-02 -1.23157509e-01 -6.14283159e-02 +1.73671037e-01 +7.23191202e-02 -8.43578950e-02 -5.18116094e-02 -1.47711277e-01 +1.01630524e-01 -1.70235172e-01 +3.29575986e-02 +8.68607387e-02 -7.38802552e-02 -5.86134903e-02 -3.84403802e-02 -4.09113802e-02 +1.15250729e-01 +6.22858480e-02 -6.92743436e-02 +2.58130785e-02 -1.48896202e-01 +3.52757052e-02 -1.95705355e-03 -9.29473713e-02 -1.83300436e-01 -4.91998717e-02 -7.69134015e-02 -1.14946820e-01 +1.74018174e-01 +1.13321982e-01 +8.80671293e-03 -2.50925086e-02 +1.00848109e-01 -1.23495072e-01 +1.42754957e-01 -1.10955887e-01 -5.27000241e-02 -1.03457579e-02 -1.06892318e-01 -7.52346739e-02 +1.12546541e-01 -1.18973315e-01 +7.76238367e-02 +1.30603477e-01 +8.00976977e-02 +1.81141466e-01 -6.26157448e-02 +1.69661507e-01 -1.29441209e-02 -1.66227296e-02 -1.20991264e-02 +3.16158906e-02 -6.79102391e-02 -1.13723151e-01 -9.32698231e-03 -3.15322634e-03 -1.28426641e-01 -8.51014182e-02 +2.20905766e-02 +4.97643314e-02 +1.16211183e-01 +1.22884428e-02 -1.62096530e-01 -1.08295627e-01 +6.59900624e-03 -1.01663336e-01 +2.04347223e-02 -9.06158388e-02 +1.10957325e-02 -8.24669674e-02 +1.19068176e-01 -8.15316737e-02 -1.89387128e-02 +1.13462389e-01 -6.36105686e-02 -9.46445670e-03 -9.19618607e-02 +9.94984359e-02 +1.11533664e-01 +2.98825651e-02 -2.06490792e-02 -5.13522401e-02 -5.66139333e-02 +7.78264925e-02 +1.60340399e-01 -3.39364074e-03 +9.55603942e-02 -7.69955516e-02 +5.86840659e-02 -2.99677327e-02 -1.30895108e-01 +1.42523974e-01 -3.44075076e-02 -2.64025331e-02 +1.19193166e-01 +8.82006735e-02 +1.74482957e-01 -1.32124364e-01 +8.21466893e-02 -7.37389848e-02 +1.27183527e-01 +1.44909397e-01 +7.24397153e-02 +1.48412343e-02 -4.42150384e-02 +9.02725160e-02 -1.43618673e-01 -9.55519080e-02 -5.26209548e-02 -4.37749885e-02 -1.56015649e-01 -8.22346881e-02 -1.10430688e-01 -1.66616485e-01 -1.46104038e-01 -1.36276819e-02 -5.99445552e-02 +3.96189354e-02 -9.38996226e-02 +1.11006491e-01 +8.78123790e-02 -5.10217948e-03 +1.21094093e-01 -8.77000391e-02 -1.22052217e-02 +3.92500404e-03 -8.64970386e-02 +9.36252624e-02 -1.24277291e-03 +1.63401458e-02 +3.19496216e-03 -3.71461436e-02 +4.48522493e-02 -5.59694646e-03 -2.83207465e-02 +1.57810569e-01 +2.65575983e-02 +2.53843926e-02 +3.99469137e-02 -2.32341141e-02 -1.56334438e-03 +8.78830161e-03 -2.06916444e-02 +2.98537477e-03 +5.84729612e-02 +8.60927925e-02 -7.93677270e-02 +7.77883530e-02 -4.71740402e-03 +8.28189701e-02 +6.67453744e-03 +4.46914434e-02 +8.14013481e-02 -5.45716062e-02 +1.40115365e-01 -4.51663043e-03 -1.04453281e-01 +9.79541466e-02 -5.87000176e-02 +3.32148150e-02 -1.33087143e-01 -2.85706948e-02 -1.40427709e-01 +6.26035109e-02 -7.86627829e-03 -1.98468193e-02 -5.00507988e-02 -1.29590333e-01 +1.09345764e-02 -2.91063860e-02 -9.11554098e-02 +2.84008705e-03 +9.30706561e-02 -1.79044396e-01 -2.08488852e-01 -3.14246165e-03 -2.37259734e-02 -2.48293597e-02 -1.16469637e-01 -1.62412450e-01 -2.85350233e-02 -1.17554508e-01 -9.41941664e-02 -8.65715593e-02 +5.30527672e-04 +7.55469725e-02 +1.96941197e-01 +3.87326963e-02 +9.48328227e-02 +5.96619286e-02 +2.57605910e-01 +1.18427336e-01 +7.34402239e-02 +1.10176526e-01 -5.01581356e-02 +1.67538539e-01 -1.04849800e-01 -8.79095271e-02 -6.92335293e-02 -9.42116380e-02 +1.21839248e-01 -3.27902287e-02 -7.96280429e-02 +5.35732321e-02 -9.22712386e-02 +8.45830142e-02 -8.18416551e-02 +1.31700724e-01 -1.21759651e-02 -2.96773706e-02 -1.41771277e-02 -8.00247937e-02 +1.15588292e-01 +3.60749438e-02 +1.00487307e-01 +5.31305224e-02 +9.28805545e-02 +9.41060632e-02 -9.54370052e-02 -4.73358482e-03 -2.05803290e-02 +7.26617649e-02 -1.46492571e-01 +1.22738324e-01 -5.71593344e-02 -1.31094903e-01 +1.17357440e-01 +8.04464519e-02 +6.08988479e-02 +8.33513737e-02 -8.89000744e-02 -2.03495070e-01 +8.62177238e-02 +6.74101412e-02 +1.13104329e-01 +1.22124460e-02 -1.08105220e-01 +1.18419221e-02 +3.48368771e-02 -2.90896706e-02 -9.49557498e-02 -8.60742554e-02 -8.85128751e-02 +1.17714323e-01 +1.10859573e-01 -1.51269231e-02 -1.18606620e-01 +5.15715219e-02 +3.57359275e-02 +8.90203416e-02 +4.02146131e-02 +1.16517454e-01 -1.20560125e-01 +1.72287729e-02 -2.92246640e-02 +1.87770665e-01 -5.23226298e-02 -7.54733309e-02 +2.69710198e-02 -9.71682072e-02 +7.28482008e-02 +5.50759397e-02 +9.08807442e-02 +1.03666797e-01 -1.37781680e-01 +1.02337345e-01 -1.39525414e-01 +1.36405051e-01 -1.05930949e-02 +5.39627764e-03 +1.09280385e-01 +7.38450810e-02 +1.03526995e-01 -4.80233282e-02 +7.56148249e-02 +1.63585902e-03 +1.99465617e-03 -1.24411032e-01 +1.35429084e-01 +1.30077630e-01 +5.98568693e-02 -5.39964177e-02 -7.32677504e-02 +8.18650723e-02 -1.48690939e-01 +9.12027583e-02 -1.27051964e-01 -1.15345620e-01 -6.55027553e-02 -2.71299370e-02 -1.39067009e-01 -5.74749149e-02 +8.09622183e-02 -5.44003434e-02 +7.96875283e-02 +8.65798220e-02 -1.38655782e-01 -1.05787277e-01 +1.44799978e-01 -8.35955888e-02 +9.12909359e-02 -8.06581005e-02 -8.67192894e-02 +1.23235174e-01 +8.19296613e-02 +1.08223736e-01 +7.59046525e-02 -1.46680206e-01 +1.39037594e-01 -3.54662985e-02 +1.07559726e-01 -5.91482930e-02 +1.56272873e-01 -5.29219247e-02 +1.10929616e-01 +8.96964397e-04 -4.39920649e-02 -7.76612014e-02 -1.48389861e-01 -1.06866285e-03 -9.76129696e-02 +1.52062505e-01 -6.28937855e-02 +3.20679806e-02 +1.05554715e-01 +1.17677182e-01 +1.28221065e-01 -6.85343966e-02 -1.66647080e-02 +1.08565530e-02 -1.10344112e-01 -5.36962226e-02 -1.26706481e-01 -3.74989933e-04 +4.68554497e-02 +4.51689214e-02 -9.56068859e-02 -1.87201604e-01 -9.26827081e-03 -1.08794302e-01 +9.12223831e-02 -5.83271123e-02 -9.94944423e-02 +9.21340473e-03 -8.47241841e-04 +2.71210019e-02 +8.74404609e-02 -4.54375036e-02 -5.08007407e-02 +1.22321080e-02 -1.30966678e-01 +7.18177930e-02 -8.44570026e-02 +9.37506407e-02 +6.42877966e-02 +6.77400008e-02 +2.02422012e-02 +5.17874882e-02 +4.15759794e-02 -1.48975447e-01 -6.45068064e-02 -1.10312603e-01 -2.54857098e-03 +4.70112450e-02 -2.21535489e-01 -5.02793957e-03 -1.81326732e-01 +1.59451794e-02 -7.93561041e-02 -6.26476109e-02 -1.20611556e-01 +1.30426884e-01 +1.73742846e-02 +6.10852391e-02 +6.46558478e-02 -7.03245923e-02 +1.27137169e-01 -9.54559520e-02 +9.67280939e-02 +8.90337825e-02 +4.84242849e-02 +7.45276809e-02 +6.63572997e-02 +4.34432626e-02 +8.24774429e-02 +3.15725543e-02 -7.72812888e-02 +2.72302516e-02 +8.87091830e-02 +4.51109111e-02 +2.02502117e-01 +1.25073329e-01 -1.28540933e-01 -4.19703312e-02 -1.29195660e-01 +8.34361613e-02 -4.78394702e-02 -1.62766210e-03 -4.21769209e-02 +5.83024919e-02 +1.00512609e-01 -4.59005870e-02 +5.42833842e-02 +1.81565002e-01 -5.65761141e-02 -4.94590588e-02 -5.92394955e-02 -3.77894118e-02 +6.35150522e-02 +6.42482042e-02 -1.95894595e-02 -1.31627232e-01 -6.43015727e-02 +1.69307161e-02 +7.80618936e-02 +7.82188401e-02 -6.41112626e-02 +7.95096606e-02 +8.91959071e-02 -1.72353089e-01 -6.19940870e-02 +1.10070854e-01 -6.47474080e-02 -7.37070246e-03 -9.06440765e-02 +1.26344919e-01 +4.95850183e-02 +4.25425507e-02 +3.08247935e-02 -1.95696786e-01 +2.34474149e-02 -2.29206886e-02 +5.82952313e-02 +2.79732887e-02 -1.56307712e-01 -1.60040528e-01 +7.27319866e-02 -9.72255245e-02 -8.21648687e-02 +1.38768122e-01 -6.32145926e-02 -7.89968446e-02 -7.99660459e-02 -9.24654230e-02 +2.22168453e-02 +6.36627749e-02 +1.52914613e-01 +6.80152476e-02 -1.22622035e-01 -1.71567255e-03 +2.95520108e-03 +6.84309900e-02 +1.24880550e-02 -2.20174026e-02 +8.14194605e-02 -1.06004402e-01 -1.88166536e-02 +6.59869313e-02 +1.75311849e-01 +2.97800116e-02 +3.95489112e-03 +1.65500790e-01 +1.07579893e-02 +4.28389460e-02 +3.13851074e-03 +2.05807686e-02 -5.84358983e-02 +8.27830881e-02 +9.50171575e-02 -8.77366886e-02 +1.02048568e-01 +7.16065541e-02 -1.17703900e-01 +8.60728994e-02 +7.70477280e-02 +4.04718146e-02 -5.09754606e-02 +9.08686072e-02 +2.21568961e-02 +1.40833184e-02 +7.84392655e-03 -6.43403754e-02 -9.20947865e-02 +1.60953160e-02 +2.47740303e-03 +1.20397910e-01 -5.15512228e-02 +6.57840818e-02 -6.67139068e-02 -6.69769049e-02 +1.28854588e-01 -8.14387128e-02 +7.03917593e-02 -2.15374812e-01 +5.89036718e-02 -1.04597718e-01 +8.56689960e-02 +2.00062543e-01 -2.02969790e-01 -1.03133261e-01 +1.46712050e-01 -2.69324314e-02 +1.28383502e-01 -1.38570489e-02 +9.53824818e-02 +1.71853364e-01 -5.39584979e-02 -6.07139580e-02 +1.04155436e-01 -9.27137863e-03 +3.64653803e-02 +1.23880371e-01 +1.26010284e-01 -2.12768078e-01 +2.74185874e-02 +4.67271358e-02 +1.17690772e-01 -1.22506417e-01 +4.01184335e-02 -1.39652893e-01 -4.40244414e-02 -4.60615046e-02 +8.47662613e-02 -1.77357972e-01 -7.51459673e-02 +1.44999266e-01 +1.23436540e-01 +6.51035574e-04 +5.37928417e-02 +1.01135895e-01 -9.60086286e-02 +1.10006541e-01 -3.99389341e-02 +1.11742422e-01 +1.26965553e-01 +1.30404428e-01 -1.26405552e-01 +6.26729727e-02 -1.27684698e-01 -4.38563153e-02 +8.98460373e-02 -2.03562807e-02 -1.92222353e-02 -1.51139013e-02 +1.77959904e-01 -6.82969838e-02 +7.84629211e-02 -5.25236353e-02 -1.07776791e-01 +5.64603284e-02 +9.54882056e-02 -4.48389351e-02 -2.26114132e-02 +8.52923095e-03 +1.27181739e-01 -6.24368265e-02 -1.47919163e-01 -6.53507784e-02 -9.53061208e-02 +1.67858042e-02 -1.21554263e-01 -1.05828807e-01 -7.99490139e-02 +3.09697799e-02 -1.23014584e-01 -3.40731852e-02 -9.65826586e-02 -3.23036313e-02 -9.60090086e-02 +5.72508434e-04 -1.49842024e-01 +1.16139399e-02 +4.54600789e-02 +1.01739317e-01 +4.60879281e-02 +1.56857461e-01 -2.98135425e-03 +1.58876464e-01 +2.43009645e-02 +7.27297068e-02 +2.37627719e-02 -5.52207530e-02 +1.06960207e-01 -3.48551050e-02 -2.07560524e-01 -6.86450005e-02 -9.71479192e-02 +1.18785026e-02 -1.12417795e-01 -2.50058651e-01 -1.20454833e-01 -5.51381446e-02 +1.10495463e-01 +2.88068429e-02 -8.28407481e-02 +3.85848358e-02 -9.23828408e-02 +8.86644050e-02 +1.27911210e-01 -4.52260375e-02 +5.41283004e-03 -9.52368826e-02 -1.19129859e-01 +6.89689294e-02 -4.44216430e-02 +7.51347169e-02 +5.33695742e-02 +4.75219302e-02 -9.06842425e-02 -6.19042329e-02 -5.12235761e-02 -5.03241383e-02 -4.83689234e-02 +6.71642125e-02 -2.70815454e-02 +6.47892058e-02 +1.38497293e-01 +2.27142349e-02 -7.66352564e-02 -1.01934813e-01 +2.72029396e-02 -6.52945712e-02 +5.10638617e-02 +6.26937822e-02 -1.03869952e-01 +1.53793246e-01 -7.61322305e-02 -2.77258009e-02 -5.53455874e-02 -1.26680434e-01 +1.23228788e-01 -6.57394826e-02 -8.56071040e-02 -3.03235184e-02 +8.86182040e-02 +5.46670184e-02 +8.40574652e-02 -1.91907108e-01 -9.14181098e-02 -1.46172964e-03 -3.54544148e-02 +3.75315025e-02 -1.60579890e-01 +1.24231614e-01 -6.59306720e-02 -2.80347839e-02 -6.94888309e-02 +6.57956004e-02 -4.78856862e-02 -4.46734428e-02 -5.66466674e-02 +1.65878832e-01 +1.42328963e-01 -5.20171039e-02 +1.05802566e-01 -7.23820627e-02 +1.25975251e-01 +1.20793149e-01 +9.86474529e-02 +1.77227966e-02 +1.28657132e-01 +1.65654317e-01 +9.04535726e-02 -4.94527593e-02 +8.91049579e-03 +1.80900227e-02 -1.11267805e-01 -8.84212926e-02 -4.53996211e-02 +2.35267561e-02 +9.83547792e-03 +1.00231454e-01 +4.28042784e-02 +4.19249907e-02 +7.72094280e-02 +1.53983355e-01 -4.71934880e-04 +1.75661463e-02 +5.46642430e-02 -1.09519757e-01 +1.29090175e-01 -5.05579039e-02 -7.26801306e-02 -1.74128730e-02 +3.68954754e-03 -1.62200361e-01 +1.99143905e-02 -1.25236154e-01 -1.51589811e-02 +1.40260649e-03 +6.11722544e-02 +2.32262611e-02 +1.58545479e-01 +8.14168453e-02 +6.41940087e-02 -1.71991199e-01 -6.78665489e-02 -9.62847844e-02 -2.22841911e-02 -1.45446107e-01 +2.62493361e-02 +9.32981297e-02 -5.64905163e-03 +7.61675984e-02 +1.65343419e-01 +4.47981097e-02 +7.60348216e-02 +1.00631349e-01 +4.93476205e-02 -2.89819445e-02 +1.39290348e-01 +6.93124980e-02 -3.91737632e-02 +1.03391968e-01 -5.39705977e-02 +7.20198825e-02 -1.62021071e-03 +1.67534843e-01 -7.52601773e-02 +2.27642749e-02 -9.03447270e-02 +1.83046743e-01 +4.23308164e-02 +3.06294933e-02 -9.18177888e-02 +1.87378690e-01 -1.54910028e-01 -3.20729464e-02 -7.29541201e-03 -4.98899743e-02 -5.11698499e-02 -1.38073443e-02 -5.80283231e-04 -3.17368587e-03 +1.71597466e-01 +1.19317740e-01 +1.17221721e-01 -6.46201745e-02 -7.09932223e-02 -1.06183045e-01 -2.90970056e-04 -9.94716808e-02 -7.56718069e-02 -1.27323151e-01 -6.24741763e-02 +7.54507259e-03 +1.04237802e-03 -1.56692654e-01 -1.15042686e-01 -3.52261402e-02 -1.17100246e-01 -6.97727501e-02 +1.01542182e-03 +1.66616946e-01 +1.90893952e-02 +9.07601267e-02 -5.22776041e-03 +5.79783618e-02 +5.46362363e-02 -2.03877628e-01 -1.31838322e-01 +1.57450572e-01 +7.04711080e-02 -1.52129546e-01 +2.84090955e-02 -2.38597989e-01 -1.00842014e-01 -1.44883553e-02 -1.08916409e-01 -1.22810520e-01 +9.16629955e-02 -9.32984799e-02 -4.84440215e-02 -1.62938371e-01 +2.78094374e-02 -6.03514388e-02 -1.53499572e-02 -6.71897829e-02 -3.97638790e-02 -8.62391517e-02 -1.32519496e-03 +1.06981881e-01 -2.12447867e-01 +1.83395624e-01 -1.30381584e-01 -5.86894676e-02 +2.07475610e-02 -3.05069908e-02 +1.30402878e-01 -1.91669110e-02 -1.33508161e-01 -1.23575926e-01 -6.92354962e-02 +8.87286663e-02 +6.16070256e-02 +1.00567207e-01 -1.10833377e-01 -7.31439218e-02 +1.24241777e-01 -1.26956210e-01 -2.06326246e-02 +1.43585920e-01 -2.36557778e-02 +9.23398416e-03 +5.81868477e-02 -1.86304584e-01 +8.06630030e-02 +7.13782012e-02 +1.39828146e-01 -1.27216563e-01 +1.08962640e-01 -1.17251009e-01 -4.17926274e-02 +8.89547691e-02 -1.98041394e-01 -3.91480587e-02 -1.20399520e-01 -8.13533142e-02 +4.27000858e-02 -4.68216225e-04 -4.23004664e-02 +2.60899719e-02 +1.22541182e-01 +1.03144631e-01 +1.55229405e-01 -3.08461040e-02 -3.42119038e-02 +1.10830419e-01 +1.40618365e-02 -1.23202585e-01 -2.43625902e-02 +1.56517819e-01 -9.87674072e-02 -3.69465686e-02 +4.67215069e-02 +1.32854983e-01 -6.57681096e-03 +4.67273332e-02 +1.05549864e-01 -5.70274591e-02 +3.12974155e-02 +9.68930051e-02 -1.26808688e-01 +1.32329702e-01 +1.09637119e-01 -7.62577262e-03 -8.13403800e-02 +1.67577714e-01 -3.19233797e-02 -1.07356217e-02 +2.33651884e-02 +9.46990624e-02 -1.35589212e-01 +9.19412530e-04 +1.65582791e-01 -2.31514201e-02 -1.11077040e-01 +1.23293357e-04 +1.34020269e-01 +5.90846986e-02 -2.97888387e-02 -1.22978292e-01 -5.41411974e-02 -7.95174167e-02 -6.25040010e-02 +3.30370702e-02 +1.22091033e-01 +3.03015988e-02 +4.09559831e-02 +5.41706309e-02 -1.76653564e-01 -1.94598734e-02 +1.89905409e-02 -2.30114702e-02 -1.02960967e-01 +7.21277148e-02 -1.47412896e-01 +4.17606123e-02 +1.30821029e-02 +9.90699381e-02 -6.73540458e-02 +4.22968082e-02 -4.86328192e-02 +1.33571271e-02 -5.06313965e-02 +1.47124261e-01 -1.87738780e-02 +2.44807126e-03 +2.67880596e-02 -6.90794364e-02 -1.13827579e-01 +3.10164336e-02 -1.07843272e-01 -3.54262367e-02 +3.55096324e-03 +1.26652494e-01 +1.24305770e-01 -5.86112887e-02 +1.29518926e-01 -8.53103623e-02 +1.22021668e-01 +2.48428062e-02 +2.23035030e-02 -1.42816409e-01 +1.44341096e-01 +6.38900101e-02 +6.88342154e-02 +6.77740946e-02 -5.36900982e-02 -6.15989640e-02 +7.86250550e-03 -1.34635091e-01 +5.43354303e-02 -4.50068898e-02 -1.30701751e-01 +4.29578358e-04 +6.88037425e-02 +1.84321910e-01 +1.89391464e-01 +1.06959432e-01 -7.46930912e-02 +7.32178912e-02 -8.26440975e-02 +5.07432930e-02 -8.40165913e-02 +1.69199966e-02 -2.33469307e-02 -9.02031437e-02 -3.79647575e-02 -7.65953586e-03 -7.82088339e-02 +1.07075557e-01 -6.07512519e-02 +2.14113947e-02 +4.70113344e-02 -9.60105732e-02 +6.90994114e-02 -1.07210509e-01 +6.60200194e-02 +1.26173675e-01 -9.86377969e-02 +3.89927812e-03 +3.59313078e-02 +9.71903875e-02 -2.54931618e-02 +1.72084227e-01 -3.17627452e-02 -8.72042626e-02 -2.33339705e-02 -1.36163786e-01 +4.73155528e-02 -1.50030464e-01 +1.96941830e-02 -2.22448736e-01 +3.24998833e-02 +1.75184637e-01 -1.38597906e-01 +7.12085068e-02 -7.89306536e-02 -1.14562236e-01 +6.33347854e-02 +8.03503022e-02 +5.03391959e-02 +1.56282216e-01 +1.10894311e-02 -2.11099431e-01 +2.87445001e-02 +7.28728697e-02 +1.91883698e-01 +1.09312840e-01 -4.31992626e-03 